9
648
4
[ 3.12751512e+00 -8.22814057e-01  1.11790340e+00 -3.57105727e-01
  1.79271544e-03  9.01245772e-01  1.07458733e+00  4.09917021e+00
  1.41619779e+00  2.24415887e+00  2.48826868e-01  1.53841670e+00
  3.01515634e+00 -2.18490233e-01 -4.88503109e-01  9.09271556e-01
  4.87607988e+00 -6.28847275e-02 -5.68068586e-01 -2.74234034e-01
 -6.77029511e-01 -6.18501099e-01  7.71296322e+00 -5.14171805e-01
  8.58842376e-01  3.48313035e+00  6.74459003e-01 -2.26187509e-01
  4.54525302e+00 -7.87780319e-01  3.61416363e+00  4.64276324e+00
 -1.66918370e-01 -4.63706555e-02 -7.48076514e-01 -7.04196805e-01
 -9.35990892e-01  2.22898252e+00 -7.30716329e-01 -7.10036437e-01
 -7.35972432e-01  2.82644438e-01  1.99362976e+00  2.75145110e+00
  3.30174982e-01 -3.12365554e-01  7.65679135e+00 -6.72444660e-02
 -1.37353815e-01  3.53957864e-01  1.37295010e-01  1.13210564e+00
  5.10223305e-01  1.50655339e-01  5.25978187e-01  8.79288395e+00
 -7.67766309e-01 -5.21069851e-01  1.99403230e+00  7.48418303e+00
  5.52132157e-01 -4.61684491e-01 -7.44643448e-01  9.20179517e-01
  2.92104213e-02 -3.97992538e-01  4.00159051e+00 -3.48246151e-01
 -5.26311859e-01 -5.34798929e-01  6.26607208e+00  8.54526400e+00
  3.44068695e-01  1.52466951e+00  4.42784933e+00  2.42123467e-01
 -7.83711441e-01  3.07111512e-01 -7.50569883e-01  4.11467851e-01
 -3.24263938e-01  6.21679586e+00 -2.47160219e-01 -1.93572667e-01
  5.92055194e+00 -2.33571472e-01  2.73780782e+00 -4.09755894e-01
  1.67206520e-01 -6.54933275e-03 -8.18490920e-02  9.14256182e-01
  4.14269067e-02  3.46840136e-01  4.83301496e+00 -1.33436520e-01
  6.96909122e-01  3.76407725e-01 -5.49380125e-01  4.65116303e+00
  2.48866734e-01  1.36514259e-01 -7.88086618e-01  3.61238505e+00
 -1.02756432e+00 -6.67125397e-01  1.51162616e-01  1.40581852e+00
 -9.05798468e-01  4.25318123e+00  8.52976463e+00  4.56383355e+00
  1.06349709e+01  3.83240658e-01  3.66987178e-01 -3.13986157e-01
 -7.56292945e-02  4.41544370e-01  6.02261046e+00 -6.96850741e-01
  3.85605731e+00  2.29997543e-01  5.34537117e-02  3.33792035e+00
  2.54311336e+00  5.74121111e-01  4.75504870e-01 -5.07497193e-01
  3.83285199e-01 -3.17807599e-01  4.03302184e+00 -4.38000711e-02
 -6.48188824e-02 -1.25930937e-01  4.06379957e+00 -7.14211836e-01
  1.11563166e-01 -6.58280944e-01  2.67946430e+00  3.05554872e+00
  7.53983165e+00  2.10000974e-01 -8.60269993e-01 -8.47913722e-01
 -3.42529411e-01  1.08438348e+00  2.79287533e-01 -8.25006125e-01
 -1.16495731e-01  1.96843705e+00  7.68022486e-01  2.07765533e+00
 -5.04442609e-01  4.74177259e+00  4.22649269e-01 -5.11029266e-01
  5.61244120e+00  2.02552838e+00 -9.31128875e-02  2.09075097e+00
  4.37631675e-01  3.69118886e-01  3.78459563e+00  4.31179466e+00
  7.10351804e-01  7.98964654e+00  6.29779916e-01  2.30514188e+00
 -9.26252636e-01  7.45837539e-02 -2.65549974e-01  2.02711284e-01
  4.54754973e+00  2.29744173e+00  2.90335235e-01  2.17143211e+00
  3.96269523e+00 -4.59387978e-01 -1.48675031e-01  4.64977219e-01
  6.23489974e-01  8.44401425e-01  5.84456073e+00 -6.06978147e-01
  4.83741971e+00  6.93760839e-01  2.26298450e-01 -8.17600754e-01
  2.11017322e+00  3.81308761e+00  3.26432754e+00  3.75579454e-01
 -9.50547591e-01  3.67910950e+00 -1.45243961e-01  4.82309900e+00
 -6.93097934e-01 -6.37710925e-01 -8.36755941e-01  9.25320936e-01
  3.52821775e+00 -8.01234338e-01 -4.66034173e-01 -1.85155405e-01
  5.17176157e+00  4.56418726e-01  8.48880689e+00  7.53164809e-01
 -4.91393854e-01  2.23359883e-01  8.08209342e-01  2.64555780e-01
  2.33901922e+00 -7.48837728e-01 -9.77862991e-01  8.19874567e-01
  3.53180830e+00 -3.33017832e-01 -1.06916728e+00  7.32974089e-01
 -4.69341717e-01  2.37239218e-01  4.97510557e-01  4.94977061e+00
  3.57452609e+00  4.73536705e+00 -4.92646961e-01 -7.58013842e-02
  7.68322057e+00  4.56092397e-01 -1.75272416e-01 -5.15103965e-01
  5.69792784e+00  2.25048603e-01  6.32837890e+00  7.84650896e-01
  2.18986366e+00  3.26642908e+00 -3.50566741e-01 -4.76291835e-01
 -1.57487025e-01  6.51613001e-03  6.32387140e-01 -3.67883430e-01
  3.69864655e-01  2.12349066e-01  3.68491536e+00  4.56736356e+00
  2.21608885e+00 -1.64661386e-01 -8.48052529e-01 -6.65569052e-01
  3.91273271e+00 -1.21544787e+00 -9.16995080e-01  1.67137911e-01
 -1.99890112e-01 -8.87459865e-01 -1.89572524e-01  2.23275490e-01
 -5.49338923e-02 -7.57011373e-01 -6.81985254e-02 -5.49915792e-01
 -1.80212248e-01 -1.80381889e-02 -1.05060789e-01  3.99901868e-02
 -5.25060964e-01  4.44024563e-01 -9.93945703e-01 -8.75161022e-02
 -9.43628065e-01  1.60777768e+00 -9.52621092e-01  3.82784747e+00
  5.22017713e+00 -2.25148516e-01  2.84981968e+00  4.44640621e+00
  2.76596791e+00  8.91357384e-01 -1.12244559e-01 -6.16878704e-01
 -9.32687101e-01 -6.14949529e-01 -2.01922929e-02 -9.63529544e-01
  8.96464990e-02 -2.76264695e-01  2.14453781e+00 -1.89336982e-01
  1.77522117e+00 -9.74038437e-01  9.10591892e-02  5.33527318e-01
  4.79673017e+00 -2.86314523e-01  4.35632614e+00 -7.57118097e-01
  9.60470358e-01  9.82636942e-01  4.40890858e-01 -6.63855090e-01
 -8.00790710e-01 -4.87819870e-01 -8.87549512e-01 -9.46270137e-01
  1.46600956e-01  2.40619352e-01  1.12464388e+00 -5.86082016e-01
 -5.41189700e-01  2.01847134e+00  2.01932257e+00  3.13113110e+00
  4.08927271e+00 -3.90881605e-01  5.97092411e-01 -9.89779594e-01
 -5.78640465e-01  5.44051007e-01 -8.44957657e-01  8.21695640e-01
  5.88405842e+00  1.05989574e+00  9.22199639e-01 -9.22777699e-01
  8.66186217e-01  1.02815513e+00  6.39335504e+00  2.35306692e+00
  4.17174791e+00 -5.78886154e-01 -7.70041402e-01  6.34026951e-01
 -8.30052387e-01  5.38373796e+00 -4.60254520e-01 -4.62266162e-01
 -4.24052728e-01 -1.70819739e-01 -9.57628602e-01 -2.03993803e-01
  9.49908599e-01  4.74676890e-03  1.17208390e+00  6.50383373e+00
 -9.54531281e-01 -2.23694338e-01  9.49531784e-01 -6.02094539e-01
  2.74972502e+00 -6.37159340e-01 -3.35994560e-02  9.01184171e-01
  6.65583613e+00 -3.58589952e-02 -9.80190298e-01  2.79985226e+00
 -9.10736217e-01 -8.02732421e-01  1.38482515e+00  5.95500809e+00
 -4.89985758e-01  5.01570331e-01  2.16346944e-02  3.72797816e+00
  4.53720351e+00  1.23064211e+00  5.56722082e-01  8.29070987e-02
  3.71213668e+00 -6.27623102e-01  1.16810101e+01  6.72632003e+00
 -3.80162296e-01  4.57917082e-01 -2.92310980e-01  4.14475993e+00
  9.76873129e-01  1.72283087e+00 -1.00586983e+00  5.75507324e-01
  5.51687530e+00 -5.78199016e-01  2.71037787e+00 -8.48361871e-01
 -1.19141249e-01 -2.94774649e-01 -3.47021366e-01 -2.58770233e-01
 -2.74811915e-01 -4.73350692e-01  4.26566123e-01  4.32474502e+00
  3.45480842e+00  3.72429245e+00 -4.65835444e-01 -5.30264948e-01
  3.96943791e-01  3.17090399e+00  8.65931968e-01  7.65935178e-02
 -4.64312301e-01  5.57720763e+00  2.01134909e+00  1.03879385e+00
 -5.16119875e-01  1.44882688e+00 -1.23498590e+00  2.22225880e-01
  7.25788437e+00 -2.48071298e-01 -1.95662480e-01 -9.50225176e-01
  8.15818940e-01 -3.32050417e-01  1.01481157e-01 -1.12122686e-01
  3.17192583e+00 -8.46413483e-01 -1.93841070e-01  3.76172528e-01
 -1.15502784e-01  7.76287229e-01 -5.08851845e-01  2.90295891e-01
  4.22187244e-01  1.23964872e+00 -1.84861847e-01  3.55686566e+00
  3.44033146e+00 -1.35234616e-01 -1.26562184e-01  5.85117518e+00
  6.06430271e-01  1.09823432e+00  5.60055542e-01  9.14142863e-01
 -4.56101386e-01  3.12546056e+00 -8.57708330e-01 -2.59509347e-01
  4.35848397e+00  5.94588603e-01  2.35423291e+00 -7.79220300e-01
  6.68891623e-01  4.38682602e+00 -4.90172893e-01 -9.34851438e-01
 -2.68732838e-01  3.28279922e-01  5.04734430e-02  1.25787737e+00
  7.80586424e-01 -3.91846946e-01 -9.09414418e-02  1.77190760e+00
 -1.10245041e+00  1.06290155e+01  1.34933100e+00  1.23955559e-01
  5.69086816e-01 -7.95522686e-01  5.60288088e+00  3.78019462e-02
 -4.45352659e-01  2.96040183e+00  3.76137650e+00 -2.03828803e-01
  7.46205142e-02  7.39987581e+00  7.29388216e-01  3.57199871e+00
  1.80744040e-01 -2.64686855e-01 -9.46076349e-01 -7.12903606e-01
 -5.78370840e-01  2.16239308e+00  6.30126988e+00  6.18739657e+00
  4.03674515e+00 -3.43341934e-01  1.72606182e+00  1.34282786e+00
  1.09311369e-01 -2.50183723e-01  5.40271885e-01 -1.87762000e-01
 -3.67652076e-01 -3.32737116e-01  2.94173163e+00  3.43511676e+00
  8.02290056e+00  1.07103334e+00  3.52949122e+00  4.77784804e+00
  3.38731037e+00  1.03998839e+00  4.41507983e-02  7.23877948e+00
  9.89123353e+00 -7.75674242e-01  7.88099527e-01  8.27823706e-01
  4.35164615e+00 -4.75114513e-01  4.08969733e+00 -1.05979615e+00
  2.73810149e+00  2.12194651e-01  4.86955145e+00 -5.28856399e-01
  6.00758208e-01  7.29880335e-01  5.20026441e-01  4.67323401e+00
  6.16337480e+00  2.46099127e+00 -1.18101254e+00 -6.75469872e-01
  3.84926549e-01  5.19952711e-01 -6.76008656e-01 -3.16671340e-01
 -3.69091404e-01  4.18367859e-01  4.47921992e+00  6.63665746e-01
 -9.01040963e-02  2.71845995e+00  6.64137152e-02 -5.35082723e-01
  3.63269460e+00 -8.22910303e-01  6.05018064e-01  4.41893389e-01
  3.34088656e-01  5.80251616e+00  3.35680964e+00  1.57217567e+00
  1.45694510e+00  6.38043763e-01  3.11712173e-01  8.65951308e+00
 -7.25868041e-01 -9.48983531e-01  7.73844302e+00 -1.08337573e-01
 -1.10196339e+00  6.28098429e-01  1.29540037e+00  3.92537816e-01
  5.78915217e-01 -4.67629733e-01 -4.96113267e-01  1.26702208e+00
  2.75587616e+00 -9.47961016e-01  9.51175269e+00 -3.90819614e-01
  8.72008609e+00 -2.57909585e-01  6.39188274e-01 -6.48018993e-01
  3.87610352e-01 -8.80453835e-01  7.46168284e-03 -2.47235005e-01
  8.27523232e-01  3.28451991e+00 -9.77297399e-01  7.30632678e-01
  9.06554357e-02 -1.77284756e-01 -4.51389859e-01  4.47525131e+00
 -8.67027279e-01  3.14801508e-01 -6.76343130e-01  8.69516964e+00
  1.68513785e-03  5.88149906e+00  1.98127296e+00  1.62911443e-01
  6.92207239e+00  8.55160864e-01 -9.77370855e-01 -5.16424207e-01
  1.69873894e+00 -9.64860582e-01 -4.73222276e-01  2.03000288e+00
 -8.18253125e-01 -6.98103385e-01  4.92814296e-01  6.04536074e-01
  7.07431792e-02 -5.51368560e-01 -4.91831793e-01  8.09029116e-01
 -7.72316692e-01 -1.82232555e-01  2.93335165e+00  3.15108546e+00
  8.96896100e-01 -2.65371937e-02  1.47913543e+00 -8.82134359e-01
 -3.69192514e-01  7.62474059e-01 -7.39466184e-01  3.53165550e-01
  6.65094420e-01  1.06505907e-01  2.22505611e-01 -3.42863375e-01
  3.73769435e+00  5.09638936e+00  1.34536707e+00  6.09725434e+00
  4.63995845e+00  7.45879536e-01  3.57144560e+00  4.14517185e-01
  5.40342350e-01 -9.49323706e-01 -8.05966679e-01  7.26306579e-01
  1.82535991e+00  2.96772429e-01 -2.03496405e-01 -9.46230138e-02
 -1.11288008e+00 -1.04669282e+00  8.10848793e+00 -7.08924856e-01
 -8.47627446e-01 -2.48883892e-01  8.77616932e-01  8.95754239e-01
  3.59670042e+00 -9.12540124e-01 -4.52146785e-01  6.12109813e+00] [-0.0096189  -0.25149658 -0.10874819  0.21411853 -0.34698718 -0.86522811
 -0.80367536  0.52788851 -0.72163439  0.40763916  0.22136415  1.05052427
  1.0361173   0.21283362  0.08565793 -0.61538455 -0.19648395 -0.61407596
  0.42612371  0.09494039 -0.94817383  0.00336756  1.35966717  0.08081857
 -0.75223096 -0.13925999 -0.69923897  0.37987875 -0.53753633 -0.30862981
 -0.46842646  0.86219764  0.49129013  0.69678714 -0.23462074  0.06005207
  0.51334868 -0.3207402  -0.20123835 -0.33107987  0.11248814 -0.81773088
  0.81445846 -0.25898134  0.36799903  0.11599012 -0.07540856  0.38219031
 -0.79363888  0.18324477  0.19287586 -0.41634145  0.17638038 -0.9343651
 -0.71494623  0.42748116 -0.87116894  0.20155992 -0.53684139 -0.20575487
  0.11194948  0.30142534  0.30152255  0.44991709 -0.82353652  0.10649381
  0.34615868 -0.84429741 -0.39605471 -0.87328265  0.04101551  1.45380811
 -0.20650268  0.54323937  0.17794197  0.50597506  0.63337085  0.02223784
  0.38809799  0.863364    0.49013378  1.17041088  0.61587374 -0.61907352
  0.835938   -0.28441659 -0.29423993 -0.33407331  0.11586197 -0.84161696
  0.95149675 -0.35611227  0.95876429 -0.03514025  0.36723844 -0.56968963
 -0.62208405  0.6758917   0.26016838  0.57316841  0.81820107  0.68281235
  0.18436015 -0.09681545  0.33285416  0.27764304 -0.62611703  0.44215432
  0.05385759  0.92809877  0.42719398 -0.42866182  1.42074182 -0.47081747
  0.54269514  0.48683202 -0.88892218 -0.47776158 -0.42885629  0.773603
  0.6296023  -0.07410418 -0.11623944  1.10079323  1.25190818  0.64529702
 -0.68720209 -0.72395531 -0.80934214  0.4268418  -0.43966992 -0.05970974
 -0.47910086  0.77119538  0.12286742  0.48618906 -0.21670139  0.97003989
  0.69959159 -0.4004036   0.18501791 -0.4126648  -0.03671111 -0.0858811
  0.25411662  0.73826129 -0.40939616  0.30537108  0.671533   -0.57792234
 -0.18856382 -0.13194406  0.95184109  0.11879031  0.88365638 -0.0041828
  0.31217361  0.11034614  0.20256851 -0.71865597 -0.2291629  -0.62943198
 -0.30335065  0.58222932 -0.96464779  0.70866455 -0.14633246  0.81259067
  0.06518812 -0.73849491  0.39156314  0.57288151 -0.3205065  -0.55323315
  0.16806737  0.14782283 -0.55166547  0.81580921 -0.95238135  0.27573651
  0.44531219  0.00980207  1.4424833  -0.06431874 -0.4579787  -0.45493676
  0.24046366 -0.01205936  0.07117303  0.87743093  0.25719219  0.0436775
 -0.43993426 -0.10431458  0.77139039 -0.20297415  0.63389575 -0.91644647
  0.26673969 -0.53089868  1.19268436 -0.97900104  0.52198137  0.43611775
 -0.17908885  0.0878156  -0.07346333 -0.70868515  0.49655122 -0.2849191
  0.21098917 -0.44509642  1.043406   -0.34767172 -0.41626794 -0.28530892
 -0.44550883  0.59770643  0.35914613  0.94676899 -0.45569448  0.7451825
  0.4641464   0.53521104  0.57495983 -0.18488368  0.62036746  0.45899377
  0.32434638  1.07885922 -0.43428829 -0.78526367  1.20499754  0.92174676
  0.9743291   0.22069317 -0.43540295  0.73410167  0.97965769 -0.25068953
 -0.02518269  0.27869823 -0.26691189  0.22550025 -0.52240029  0.71858606
  0.00616351  0.70090508  1.04828555  0.37141722 -0.67706552 -0.17372149
  0.44822379 -0.27380526  0.65341061 -0.74891364 -0.76838226 -0.70298943
  0.94630555  0.92600673 -0.88983208  0.41171212  0.28109649  0.12742463
 -0.59673269 -0.91725781  0.0795837  -0.45445239  0.22319918  0.84846514
  0.69583143  0.47576797 -0.85583018  0.34232517 -0.58031636  1.25268821
 -0.13025807 -0.56348393  0.72615373  1.02584129 -0.56687837  0.13509298
  0.81645384  0.63239186 -0.95514178  0.66940604  0.09577737  0.68311826
 -0.68718614 -0.69628156 -0.20148201 -0.55362033 -0.34292262 -0.0019011
 -0.8086505   0.58696018 -0.09241822  0.22969324  1.3849793  -0.27333431
  0.49841808  0.94233926 -0.9511886  -0.91764518  0.46961967 -0.01912128
  0.7064472   0.89416445 -0.40650372 -0.52987662 -0.51177516  0.29811509
 -0.62449541  0.32602589 -0.64167239  0.10680538 -0.16677087  0.335983
  0.32800214  0.89207939  0.2601283  -0.92545491 -0.74137834 -0.5447246
  0.48424287  0.83010924 -0.72607257 -0.55407376 -0.69378227  0.58165312
  0.09345489 -0.35110276  0.63568806  0.86903601  0.08236329  0.9213638
 -0.5268026   0.06837552 -0.43556969  0.21695769  0.4512538  -0.28167637
 -0.77851329 -0.22500423 -0.70812265  0.39161265 -0.85692346  0.03681487
  0.41689549 -0.33883281  0.18109282  0.13172932  0.06843329 -0.87088767
 -0.20898379 -0.36221482  1.22575161  0.48493858 -0.79713157  0.58988184
  0.1893566  -0.34662755  1.02808536 -0.17403365  0.29119032  0.1135393
 -0.9870262  -0.73195538  0.79059257 -0.91786009 -0.74035654 -0.11258041
 -0.69520152  0.26020578  0.54635291  0.52919571 -0.10011032  0.04455512
  0.46586261  1.10549656 -0.3728559   0.28276005  0.43967726 -0.08976429
  0.34111217 -0.15635889  0.76774856 -0.97943113  0.78747261  0.96192381
 -0.25299477 -0.31147889  0.50983702  0.69934303  0.45197127  0.86499944
  0.42625094  1.30086923  0.69674781 -0.30838101 -0.46095781  0.21798254
  1.07093294  0.00645145 -0.77793457  0.18371729 -0.67407285 -0.16569655
  0.86119538  1.16135292  0.11437318 -0.41373016  0.75049843  0.49490492
  0.84730552  0.57274833  1.02707352 -0.614844    0.03860144  0.56019463
 -0.58346397 -0.29104029 -0.66326245  0.20620653 -0.31659843  0.22719143
  0.04636582 -0.05395865  0.30400562  0.1201711  -0.7499179   0.15511211
  1.0774907  -0.16165038  0.13782231  0.24490637 -0.06894067  0.94987528
  0.01622762  0.25245834 -0.24312689  1.0208853   0.58063724 -0.88514388
 -0.48618312 -0.41827866  0.19301807 -0.4851292  -0.89438624 -0.57122175
  0.57422883  0.1008261   0.86532236 -0.71236898  0.38522858 -0.75202194
  0.21033231  0.92819684 -0.46296501  0.99694391  0.03480844  0.75386288
  0.89445212  1.05595119  0.49856277 -0.60904057 -0.50470722 -0.18353823
 -0.3851068   0.31285448  1.24014493 -0.66201474  0.07820265  1.51816971
 -0.15443475  0.53939717 -0.17686766 -0.48884589 -0.98179913  0.02461235
 -0.95179911 -0.63308288  0.84778221  0.77718346  0.0813123  -0.04607898
 -0.03074272 -0.83035664  0.30204852 -0.37294632 -0.66464156  0.14316588
  0.7301429  -0.87162033  1.15611598 -0.48822126  0.66447476  0.06396905
 -0.56553629  1.34783032 -0.30062617  0.86785066 -0.69766398 -0.39527237
  0.90741842  0.57644861  0.02953272  0.24772621 -0.19314078  0.81871936
 -0.46835686 -0.32940464  0.28469447  0.81854836 -0.03842652  0.68793597
 -0.52069345  0.75100376 -0.35421822  0.94146719  0.9355908   1.13559286
 -0.11493016  0.13072519  0.60834871  0.81436094 -0.11811634  0.73013585
  0.82218062 -0.21511579 -0.29302528 -0.96731048 -0.31023529 -0.6178173
 -0.27253994 -0.07135332  0.42256918  0.26813299  0.44857751 -0.26793064
 -0.15034237  1.49851679  0.05218024  0.2048982  -0.16611946 -0.51045403
 -0.45579837 -0.12379773  0.37992591  0.91461646  0.19084593 -0.46462479
 -0.65652594  0.27875447  0.66417712  0.80856665  0.3363333   0.59987944
  0.4175649  -0.26260775  0.64156928  0.61950102  1.67363835 -0.46755528
 -0.2266818  -0.76468441 -0.81957468  0.31495563  0.90645452  0.93556934
 -0.51899834 -0.80034897  0.54835172 -0.25558929 -0.16698504 -0.50849129
  0.63770737 -0.38701378 -0.70634755  0.77861231  0.06204309 -0.4287699
  0.1571782   0.47022471 -0.01020065  0.6421532  -0.16131638 -0.75201699
  0.01708089  0.35508155 -0.70707425  0.12704628  0.01497182  0.20078395
 -0.95940033  1.19407514  0.7580212  -0.52590997 -0.71581709 -0.37894695
  0.11830589 -0.10109664  0.60647533  0.99719332 -0.98932    -0.9884505
  0.72966686  0.62245163  1.021879    0.50106613 -0.52774603  0.41998434
  0.36190077  0.32388994 -0.43158025  0.0990211   0.5654615  -0.92184486
 -0.21545564  0.09441083  0.50824948 -0.44029443 -0.81409582  0.76022443
  0.84635409 -0.0520057   1.27658175 -0.93222262  0.50076495 -0.56121538
 -0.32752147 -0.30475477  0.73232222  0.91195503  0.09454336 -0.48546211
 -0.38472926 -0.94521246  1.70696647 -0.59586595  0.7480674  -0.01704022
 -0.09144191  0.70597988  0.44199412 -0.69450444 -0.52801674  0.85321599] [-0.38879914  0.12463814 -0.86016121  0.41699484 -0.06615876  0.14581457
 -0.13494722  0.21385069 -0.35736528  0.68847243 -0.97015973  0.15280648
 -0.26450403  0.06108153  0.23535379  0.42594523 -0.14330787 -0.58425536
  0.39256428 -0.04841244 -0.68788674 -0.29380568  0.51733196  0.69341531
 -0.08359165 -0.09148415  0.39326048  0.11255936  1.03205808  0.47095189
  0.24503976  0.49347604 -0.26026614 -0.87941031  0.1517966  -0.63829474
  0.49736271 -0.23594811 -0.31406721 -0.30716935 -0.26265646  0.50553545
  1.04101321  0.88750271 -0.6694117  -0.18509434 -0.19310182  0.98284302
  0.69878736 -0.14158235 -0.68245971  0.12903287 -0.10868591  0.6688183
  0.76526827  0.64917332 -0.52264992 -0.41208397 -0.69111932  0.6716243
  0.43125128 -0.46104973 -0.49866978 -0.80537033  0.58600757  0.56272436
  1.01235466  0.41877569  0.19258259 -0.93904517  0.44446544  1.28033842
 -0.8120003  -0.15039183  0.24225475 -0.40633275 -0.21386415  0.5418254
 -0.39866967  0.87465979  0.12842125  0.32855729 -0.46178415 -0.73840431
  1.39891151 -0.409171    0.64937674  0.44121598  0.60135784  1.03986913
  0.97007887 -0.19394929 -0.25312059 -0.76874988 -0.59849087 -0.83253345
  0.07720409 -0.78682755  0.37472525  0.34323777  0.29623228 -0.73414847
  0.43382172  0.63722218 -0.82793017  0.3511935  -0.00383191  1.10890538
  0.96711849  0.66257372  0.76507893  1.11003275  1.62756909  0.09296718
 -0.00771561 -0.4277048   0.54393413  0.0096799   1.30186361  0.18551568
  0.06625726  0.21054943 -0.90361918  0.2653475   0.97391375  0.75355692
 -0.43407272 -0.90635881  0.76365887  0.17838256 -0.23334232  0.87708143
 -0.62378502  0.74185991  0.45851321 -0.16218942 -0.02881774  0.46133424
 -0.36173168  1.119598   -0.4048283  -0.32375671 -0.43591794 -0.9763483
  0.18569931 -0.61870161 -0.97552729  0.56797984  0.34590925  0.81148747
  0.42032271 -0.59598256 -0.76723732 -0.49031538 -0.23239291  0.00165933
  1.32037744  1.09271826 -0.05325788  0.30969805 -0.37090745 -0.26547942
  1.19397199 -0.37014196  0.09443713  0.62570523 -0.76524072 -0.56472555
 -0.03283487 -0.10701954  0.53402333 -0.2524648   0.43108476 -0.33098369
 -0.9205746   0.84572327  0.10045917 -0.60383358  0.59623053  0.77799272
  0.54083275  0.76849057 -0.18958127  0.16816431  0.22438422  0.32377414
 -0.68628167 -0.44915928 -0.47807591 -0.07394957 -0.16674902 -0.69552774
  0.05510969 -0.50641085 -0.68861291 -0.13433588  0.84555964 -0.29950656
  0.76878461 -0.80496867  0.69317206  0.88587973 -0.93629106  0.49377225
 -0.18247036  0.71984206  1.56502216  0.06123189 -0.73989983  0.10350659
  0.04349346 -0.3897619  -0.13312131 -0.09900119 -0.42082503  0.80895282
  1.01031174  0.23991166  0.60759261  0.2294697   0.01502942 -0.69041039
 -0.85486288  0.72040679 -0.66293705 -0.4430677   0.98685148 -0.82887126
 -0.09104409  0.65572806  0.47057578  0.48262322 -0.1467478   0.71122159
  0.46732937 -0.39667256  0.22006757  0.00687048  1.00177582 -0.96294197
  0.942337    0.27137637 -0.77669622  0.39342589  0.08077868 -0.60650636
  0.45136923  0.56868457  0.48184111  0.9579035  -0.15753075  0.37428479
  0.89795453 -0.83332628 -0.08727758  0.59709583 -0.2053702   0.89770988
 -0.48133441  0.11695235  0.82442072  0.9469211   0.22300079  0.11002828
 -0.6243872  -0.69908669  0.01372372  0.52725805 -0.31315613 -0.79136991
  0.19150014 -0.71338541  0.79293201 -0.27249567 -0.08963112  0.54088845
  0.65224938 -0.29214461 -0.262331    0.6951401  -0.03243301  0.33434446
 -0.280322   -0.63113592  0.78833759  0.58280501 -0.2902269   0.41286033
 -0.59709751 -0.29637165 -0.56711973 -0.00470739  1.05194565  0.74085009
 -0.41897148 -0.59428413 -0.24145082 -0.60566021  0.52860985  0.97374295
 -0.14044512  0.97480863  0.73887293  0.08740786  0.13137937 -0.83742742
 -0.38530784  0.38603908 -0.69733114 -0.49993162  0.1089294  -0.25647879
  0.34280694  0.85993811  0.667888    0.17848227  0.0350523   0.79393467
  0.89085775  0.56972972 -0.66889132  0.84365261  0.19081836 -0.98338047
 -0.20449008 -0.80170962  0.24730847 -0.29481599  0.09362652 -0.82983851
 -0.4878477   0.91179022 -0.56185618  0.15993195  0.03583342 -0.12843885
 -0.95928814 -0.58465617  0.26998099  0.71789301  0.6425087  -0.88360185
 -0.55856656 -0.71665188  0.2654652   0.93379665 -0.18114183  0.34268964
 -0.87938277  0.41644793 -0.95266759 -0.2074063   0.12911831  0.05350646
  0.51973776  0.59525631 -0.52824104 -0.50880058 -0.2359117   0.22449844
 -0.47425726 -0.16460492  0.25886304  0.96358309  0.25682201  0.55045225
 -0.61472178 -0.24629993  1.28539696 -0.32162576  0.54048908  0.39649273
 -0.62427357 -0.63977893  0.26909256 -0.13013205  0.45372362  0.04693863
 -0.11173228 -0.07843646  0.83649069  0.47479129  0.05185277 -0.79381273
  1.00673993  0.40284299  0.68434703  0.6022325  -0.68108772  0.7591207
 -0.61043083 -0.30562981 -0.00655815  0.26462651 -0.40990254  1.10797239
  0.78345035  0.0874285   0.25443458 -0.51587618 -0.28738083  0.8268885
  0.569118    0.94712487 -0.30360398 -0.26312687 -0.09848136 -0.35713936
  0.58573464  0.44450763 -0.32463249 -0.98395586  0.37863426 -0.20064219
  0.65272372 -0.12442416  0.211869    0.82005995  0.34763091 -0.48136909
  0.51048172 -0.81484282  0.34314795 -0.27533618  1.04952728 -0.06991168
 -0.57908812  0.50368412 -0.69463981  0.98555451 -0.93357727 -0.72127633
  1.02262621  0.06249442  0.69114646  1.28143258 -0.44547865 -0.40608957
  0.52319523 -0.74055467  0.6070147   0.24411907 -0.45537627  0.58036489
  0.21952158  0.67839932 -0.27501103  0.5702327   0.87673209  0.27803281
 -0.10006686  0.77661223  0.31439754 -0.04074035  0.06892303 -0.09443152
  0.91146814  0.03906643 -0.43666769 -0.32721051 -0.2177213   0.76429525
 -0.08062669  0.40808444  0.12330067  0.82881344 -0.33538147  0.86975146
  0.652285    1.16474228  0.80403614  0.87899412 -0.73077446  0.73379688
 -0.03144597 -0.51320037  0.23496631 -0.30437541 -0.04756214 -0.79375188
 -0.60849249 -0.42103043  0.4965416  -0.37166097  0.79611316  0.5938908
  0.98556021  0.11454051 -0.23125834  0.23173917  0.32402754 -0.90258166
 -0.15019212 -0.95753645  0.14109142 -0.13975231  0.74318313 -0.63687994
  0.79086834  0.75137366 -0.11804586  1.0622102   0.47295988  1.1376967
  0.40899527  0.59322829  0.7518476   0.54116709  0.44504177 -0.39845465
  0.51659277 -0.6293377  -0.43686066  0.61710256  0.00890976  0.43756256
  0.82942496  0.48827322 -0.83965069 -0.30134063  1.26243491 -0.31337345
 -0.37649757  0.18326112  0.42326777 -0.48927378  0.75056656  0.66462888
 -0.31275081 -0.30388644  1.23264762 -0.80670737  0.08746631 -0.53007134
  0.52672661  0.9372629  -0.44185969  0.80628023  0.24837119 -0.52297713
  0.27665143  0.52079141 -0.5227575  -0.43632918  0.74046289  0.31963558
  0.68730866  0.88405101  0.12191429 -0.56080515  0.7913176   0.50969004
 -0.09295196 -0.53763232 -0.45055782  0.19919529  0.98125538 -0.973592
 -0.71419051 -0.31609409 -0.56607332 -0.10548097 -0.01852314  0.97737353
  0.88920335  0.11490017  0.27864882 -0.45493558 -0.80235538  0.98373686
 -0.53789493 -0.72442601 -0.61725952  0.26350832 -0.15514263  0.2516878
 -0.812032    0.55202964  0.20386678  0.01557892 -0.39812845  0.71424455
  0.88870821  0.61340951 -0.83370436  0.37551637  0.98987398  0.35032709
  1.10970066 -0.69621201  0.27481784  0.59804006  0.22639145 -0.36814403
 -0.93461805  0.57297131 -0.1657911  -0.38610912  0.45720163  0.04781058
 -0.94928589  0.89366985  0.08920856  0.2504698  -0.85879885  0.0543606
 -0.20111637 -0.39398252  1.03995754  0.17597743  0.30429674  0.37058679
 -0.9933574  -0.02448046 -0.73965573  0.40498272 -0.04794731  0.47322872
 -0.75830406  0.22468852  1.04049915 -0.4266355   0.57462665  0.29900328
  0.20176043  0.35473859  0.07793184 -0.83404177  0.05749236  0.84391711
 -0.45360528  0.77144399  0.10010647  0.50051636  0.32015496 -0.0868775
 -0.30713113  0.96235192  0.80874068 -0.33020191 -0.38295421 -0.76911261
  0.62842693  0.56783869  0.22620701  0.87092552 -0.15531778  0.34510491] [-5.25908830e-01  9.56900630e-02  4.47107167e-01  6.26881440e-01
  3.13575465e-01  7.49841243e-01  4.82615064e-01 -7.08301909e-01
  8.13317226e-02 -4.03303157e-01  6.90724481e-01  3.53347124e-01
  3.63904320e-02  6.84656534e-01 -9.16078534e-01 -6.96675570e-01
  6.08216886e-03  7.75686949e-01  2.95032474e-01 -8.94082305e-01
 -3.16914649e-01 -9.86740660e-01  7.66307106e-01 -8.34059957e-01
 -1.71427963e-01  7.72953404e-01 -6.00109388e-01 -4.33789175e-01
  1.15717585e+00 -1.95444819e-01 -6.90157798e-01  9.87124873e-02
 -1.41009774e-01  8.60449673e-01  2.93793248e-01 -5.57284608e-01
  7.64706521e-01 -3.25262433e-01 -2.32443417e-02  1.15149709e-01
  7.25687476e-01 -6.65007350e-01  2.79012602e-01 -7.45708829e-01
 -3.56821827e-01 -5.99843076e-01  1.43272954e+00 -7.70947112e-01
  8.41276869e-02 -3.31566907e-01  8.91091077e-01  6.61518146e-01
 -9.44806382e-02  2.80639407e-01 -3.34888237e-02  1.33995493e+00
  4.68595738e-01 -5.25009313e-01 -8.09038742e-01  1.14607982e+00
  9.33993695e-01  7.59800267e-01 -9.90415850e-01 -2.13263155e-01
 -7.46061506e-01 -7.70800526e-01  1.79975752e-01 -4.76493441e-01
  5.30446643e-01 -4.16160622e-01  5.35729959e-01  7.22133182e-01
  8.90967784e-01 -1.25799516e-01 -5.31868898e-01 -5.83937268e-01
 -1.63803516e-01  9.90707404e-02  4.44587167e-01  7.59399730e-01
  8.69935695e-01  5.47906091e-01  7.03921318e-01 -5.16809453e-01
  1.08219808e+00 -3.19094428e-01  3.65512182e-01  4.62811494e-01
 -6.49147542e-01 -3.15785919e-01  2.87448660e-01 -6.02231687e-01
  6.02365860e-01  8.95614626e-01 -4.35454365e-01  1.30516163e-02
 -3.48559082e-01  7.19653101e-01  4.92439591e-01 -3.35312682e-01
 -4.18224647e-02  8.09758376e-01 -5.29019227e-01 -1.79471781e-02
  3.15812444e-01  8.15423339e-01  5.14701329e-02  5.07539697e-01
 -9.34915974e-01  1.08365179e+00  1.31899782e+00  1.14427092e+00
  1.57926288e+00  7.35889350e-01 -5.41755340e-01  8.74869853e-01
 -1.90886651e-01  4.57109805e-01  8.58497336e-01  5.79654090e-01
  2.93899287e-01  9.83738699e-01 -5.61592133e-01  5.58473087e-01
 -2.07011907e-01 -6.50075726e-02  4.28096499e-01  4.27948352e-01
  8.93630642e-01 -9.76085188e-01 -1.61414217e-01 -2.42408852e-01
  3.44244504e-01  8.84788048e-01 -3.36516392e-01  6.97656434e-01
 -8.14066841e-01  6.93585490e-01  8.85606235e-01 -6.86151262e-01
  2.52106406e-01 -2.81964493e-01 -6.92565872e-01 -3.70278302e-01
 -1.82752825e-01 -7.26136307e-01 -6.93039628e-01  3.09201662e-01
  4.06164637e-01  8.07852839e-01 -9.08990437e-02 -8.78668781e-02
  3.64977325e-01 -3.27136614e-01 -1.41594978e-01 -9.88742232e-01
  2.44747798e-01  1.58531262e-01 -9.51411974e-01 -7.82058546e-01
  6.28395750e-01  8.46933228e-01  7.34346215e-01 -2.16783580e-01
  7.42732121e-01  6.79216895e-01 -4.64407844e-01  9.12084141e-01
 -4.03187299e-02  7.06881071e-01 -9.32152262e-01  3.83360535e-02
 -3.64525103e-01  5.76005743e-02  8.84775491e-01 -6.51350503e-01
 -2.55584642e-02 -5.03755184e-01 -2.02963410e-01 -8.54582512e-01
 -8.31094152e-01  4.03462465e-01 -1.67868629e-01 -3.09903104e-01
 -5.81023813e-01  9.19551826e-01 -2.12142965e-01 -2.45546636e-01
  1.17094726e+00 -7.53311263e-01  1.15543482e+00 -8.07895854e-01
 -2.25417999e-02  1.23380807e+00 -5.57947961e-01  1.04860782e+00
 -3.46128144e-01 -9.78823274e-01 -3.10817325e-01 -8.20913005e-01
 -5.03651985e-01  8.26382345e-01 -3.12960907e-01 -2.18908689e-01
  1.27571473e+00  2.82230154e-01  7.91989077e-01 -1.75054158e-01
  2.23089193e-01 -9.43642038e-01  4.91540124e-01  8.62157226e-01
 -6.01207618e-01 -5.99966272e-01 -8.00966106e-01 -1.80109706e-01
  1.07018114e+00  1.88667473e-01  8.48803633e-01  1.79954903e-01
 -5.39456349e-01  2.87610752e-01 -2.42243739e-01  1.19156203e+00
 -4.31619206e-03  7.77284518e-01 -1.32290800e-01 -6.11477165e-01
  5.51765965e-01  1.01601922e+00  6.93622227e-01 -8.76261429e-02
  1.09352942e+00  1.58415478e-01  3.37683641e-01 -1.59341181e-01
 -2.54055465e-01  1.48426396e-01  3.04874903e-01  8.26334816e-01
 -3.74374636e-01  2.51121374e-01 -7.82191155e-01 -5.29384427e-01
 -9.90913281e-01 -8.73820224e-01  4.11585783e-01 -3.73696301e-01
  3.70368182e-01 -5.35999909e-01 -9.68285280e-01  8.54363224e-01
  8.39786908e-01 -6.32268953e-01 -6.83537824e-01  1.87065593e-01
 -9.94871715e-01  9.09929121e-01  6.96519998e-01  7.06782665e-01
  8.98613089e-01  7.59564306e-01  6.35784658e-01 -2.29776656e-01
 -5.60005834e-01  9.86432520e-01  9.82540246e-01  9.53700802e-01
  2.27906951e-01  2.18903862e-01 -4.39291786e-02  1.96647280e-01
  2.49998862e-01 -2.39559095e-01 -6.45575606e-01 -3.89151982e-01
  6.50943629e-01  1.48716740e-02  7.35200413e-01 -3.37164193e-01
  1.28336617e-01  6.04034679e-01 -9.69849338e-01  4.31382371e-01
 -8.81403152e-01 -1.62034465e-01 -1.72920007e-01  2.91573129e-01
 -4.30898562e-01 -5.03051701e-01  3.50534702e-01  5.68889990e-01
 -5.29012860e-01 -6.66639064e-01  7.42674630e-02  6.50673138e-01
  1.36597861e-01  1.20969327e-01  1.06739699e+00  4.28487573e-01
 -1.66011927e-01 -4.69590281e-01  1.02417773e-01  6.15316360e-01
  5.93534405e-01 -1.31205223e-01 -4.13896908e-02 -2.70965192e-01
  5.44082372e-01 -7.61005793e-01 -3.82436788e-01  6.82456279e-01
 -4.54064590e-01 -1.29524713e-01  9.00180917e-01  5.96861840e-01
  6.98191779e-01 -1.09602971e-01  3.38338755e-01 -3.87900021e-01
 -8.51430440e-01 -8.42078709e-01  1.95447932e-01  3.64456118e-01
  5.36237501e-01 -7.32802288e-01 -2.40108173e-01  8.86707496e-01
  4.88063258e-01  7.74664398e-01  1.18324613e+00  9.94707777e-01
  2.59309385e-01 -2.48929747e-02 -5.41468047e-01  6.61495779e-01
  8.95211622e-02 -1.99735922e-01 -4.75642757e-01 -8.28719292e-01
 -9.64925927e-01  2.13776012e-01  8.30935551e-01  4.22230367e-01
 -3.91223079e-01  9.53841407e-01  7.34784459e-01 -1.97474186e-01
 -9.36851005e-01 -6.02906219e-01  3.68038866e-01 -3.78209005e-01
 -4.45341214e-01  7.51299019e-02  7.59746718e-01  8.49147205e-03
 -2.44039565e-01 -3.57614441e-01  2.20055084e-01 -7.26568662e-01
  6.80100674e-01  6.61164317e-01  1.01793466e+00 -3.79157835e-01
  1.70367181e-01 -4.17753868e-01  6.69747786e-01 -2.45282314e-01
 -6.13357015e-01  3.64909232e-01  5.08006904e-01 -1.67387746e-01
  6.39089442e-01 -7.38330555e-01  9.36967946e-01  7.78456502e-01
 -7.95037133e-02 -4.40011143e-01 -6.51290509e-01  1.59488557e-01
  1.62030947e-01  7.92483701e-01  3.11896288e-01  9.91152068e-02
  7.74506449e-02 -1.63942455e-01 -8.31593289e-01 -9.81686422e-01
  8.76121552e-01  1.45640949e-01  3.09873803e-01  4.50738499e-01
  8.09552402e-01  1.22422865e-01 -4.74181017e-01  6.57122454e-01
  9.36081575e-01 -6.28939144e-01 -5.80696352e-02  9.05563292e-02
 -6.54563039e-01  4.76892968e-01 -2.12992336e-01 -8.13307209e-01
  6.94397961e-01  1.10022765e+00 -2.05433944e-01 -3.46045289e-01
  2.86561341e-01 -7.41882227e-01 -5.18189316e-01 -3.90096601e-02
  1.18838861e+00 -6.95612072e-01  9.81750792e-01 -2.03221894e-01
 -6.62799134e-01  9.17179388e-02  9.59156710e-01 -4.58149894e-01
  1.20587081e+00  3.77548100e-01  9.52026844e-01  4.74666068e-01
 -8.23468627e-01 -4.13821790e-01 -6.44278637e-01  9.23626678e-01
 -9.96725879e-03  7.64712738e-01  7.51987955e-01  4.57423615e-01
  3.78792518e-01  9.06332057e-01  6.63470519e-01 -3.55282007e-02
  4.78816284e-01 -8.00188093e-01  8.10428227e-01 -8.72001006e-01
 -7.85315780e-01 -3.66812866e-01 -3.98027978e-01  1.26163290e-01
 -1.05047085e-01  2.19687696e-01 -3.71707241e-01  1.91576550e-01
 -1.98332593e-01  6.04812118e-01  3.23276962e-01 -7.78284861e-01
 -6.01278727e-02 -6.55333676e-01  2.13347737e-01 -6.18157530e-01
  7.74543656e-02 -2.87942902e-01 -8.82053140e-01 -7.73799539e-01
  4.30971137e-01 -1.69001148e-01 -7.81874481e-02 -4.96133551e-01
 -5.34018031e-01 -9.19422543e-01  4.58095913e-01 -2.42807824e-01
 -7.34823526e-01 -5.91332445e-01 -7.54832098e-01 -7.10769492e-01
 -6.92524642e-01  4.85575577e-02 -8.57111749e-01 -3.11929336e-01
  2.00165548e-01  3.32005702e-01  6.71251139e-01  6.12760969e-01
 -4.82390227e-01 -2.92060254e-01  3.52648057e-01  3.91847464e-01
  4.36695235e-01  6.65048254e-01  5.65590221e-01  2.04084905e-01
  9.17756540e-01  8.38466345e-01  4.04594031e-02  3.98134349e-02
 -7.84516391e-01  6.70812450e-01 -7.67878229e-01  1.57314704e-01
 -4.98310386e-02 -2.89764554e-01  2.69177359e-01  5.25260602e-01
 -7.88259579e-01  4.97553624e-01  7.86467474e-01  7.45218158e-01
  7.27292735e-01  8.41768262e-02  7.02529250e-02  2.06119264e-01
  8.09011524e-01 -7.96532073e-01  9.82728083e-01 -3.55417000e-01
 -3.25957777e-01 -7.80109491e-01  1.31858201e+00 -4.84567679e-01
 -5.18048518e-01 -4.43173330e-01  4.09730293e-01  8.76449653e-01
  1.34910931e+00 -8.08964692e-01 -6.99440839e-02  7.86848084e-02
 -8.12209630e-01 -9.29186224e-02 -8.16813718e-01 -4.47266567e-01
 -3.67019753e-02  4.65415093e-01 -4.60777411e-01  8.71995641e-01
 -8.43514570e-01  4.53666228e-01  9.64992252e-02  9.06692661e-01
  8.36287712e-02  1.92332997e-01 -6.11144428e-01  8.61874268e-01
  6.14965799e-01  2.11176954e-01  1.04082232e-01  7.72431938e-01
  3.92540130e-01  4.55555931e-01 -5.24380515e-01  3.70566011e-01
  8.38632357e-01 -5.90418130e-02 -5.12919735e-02 -5.85263664e-01
 -6.12518667e-01  3.58507394e-01  7.43212644e-03  9.69667339e-01
 -5.94951757e-01  5.62712661e-01  6.77082651e-03 -8.51947127e-01
 -5.97110619e-01 -5.88343028e-01  1.58677506e+00 -2.18021716e-01
  8.94242258e-02 -8.55004693e-01  9.48322655e-01  2.29148960e-03
 -3.20135861e-01 -2.01494689e-04 -7.77184805e-02  6.88917406e-01
 -4.04069100e-01  1.68213276e-01  7.73845834e-01  5.26407112e-01
 -5.95636818e-01  8.85190977e-01  8.90480969e-01  1.07415685e+00
  6.41900826e-01  5.75184606e-01 -3.75479776e-01  2.68886330e-01
  2.75040397e-01 -2.39771125e-01 -5.65630912e-01 -3.83288226e-01
  3.92269174e-01 -2.99877470e-01 -5.79740922e-01 -6.55113757e-02
 -7.86029043e-01  9.06626868e-01 -9.86983759e-01 -6.23474936e-01
  5.73211493e-01 -2.57476263e-01  5.99646046e-01 -9.31300746e-01
 -2.37040995e-01 -9.26558666e-01 -3.65362584e-01  3.02822670e-01
 -8.28303244e-01 -2.02239249e-01 -6.70168079e-01 -5.49049161e-01
  5.91529080e-01 -6.76917503e-01 -4.95457273e-01  7.37780725e-02
  4.57022675e-01 -5.49857875e-01 -1.94673847e-01  9.30273739e-01
  4.53760307e-01  5.51737376e-02  6.62312969e-01  7.85609639e-01
  9.31691991e-01 -4.52197391e-01  5.37534682e-01 -3.22516142e-01
 -2.46925999e-01 -6.38245817e-01  3.14172046e-01  7.06231405e-01
 -1.15509684e-01 -5.59493294e-01 -4.99996435e-01  4.10833438e-01
 -6.09217572e-01 -7.13155627e-01 -2.09844439e-01  2.70234685e-01
  8.55511969e-01  3.16371285e-01  2.85694083e-02  5.44175626e-01
 -3.24964474e-01  1.16809783e-01  5.96335632e-01  2.04978194e-01
  9.38333200e-02  5.61106532e-02  7.49446573e-01  1.15858216e+00] [ 0.19822223 -0.29999731  1.04143047  0.310934    0.23753547 -0.95998611
  1.30731553  0.25035421 -0.23614269  0.43908472 -0.39417029 -0.61089316
 -0.04348277 -0.21357297  0.46553863  0.03409114  1.52687984 -0.70805843
  0.45068786  0.89136339  0.40730561  0.04015366  0.91526589  0.33172106
 -0.645637   -0.2169495   1.13849423 -0.19495123  1.09234713 -0.31721134
 -0.16203249  1.64829356  0.46836609  0.08084927  0.40629666  0.40667792
  0.15010171  0.19027044  0.75882844 -0.83912181 -0.21651089  0.64625957
 -0.35604889 -0.08084326  0.93704284 -0.58464653  1.71194334  1.05852843
  0.35284103  0.15830953 -0.9107822  -0.0167877  -0.70377265 -0.68639744
 -0.63249752  1.2476749   0.6393096   0.98781316  0.37920133  0.42065776
  0.00887139  1.06263893 -0.15587609  1.02841012  0.43417937  0.02499278
  0.93957955 -0.23526124 -0.40101077 -0.78244649  0.34746267  2.38110954
 -0.41764746  0.12214866  1.59881482 -0.81134294  0.92233739 -0.24956624
  0.53004155  0.17850002  0.7438612   1.41790676  0.38858718  0.49854508
  0.81615058  0.30916499  0.94316282 -0.44223458 -0.67219975 -0.21384836
 -0.83893785 -0.08411669  0.84719544  0.82779915  0.28601823  0.5826334
  0.21425343 -0.08369841  0.14581441  0.38290938 -0.07044329  0.19332342
  0.78940046  0.08443654  0.78300719  0.03873395 -0.73918783 -0.34016206
 -0.32404606 -0.21112768  1.64174641  1.46836547  2.59568481  0.51277527
  0.86159731  0.68289777  0.84164083  0.05698037  0.26572281 -0.11744159
  1.56756074 -0.77263461 -0.22597862  0.18808281 -0.25251218 -0.29813268
 -0.2645868   0.67219633  0.78586276  0.84944998  0.91755398 -0.97240083
 -0.87481644  0.99764498 -0.06944524 -0.00660413 -0.11636846 -0.56519653
  1.45320429  0.3169931   2.24119732 -0.79101155  0.28165233  0.47617703
 -0.37518197  0.53732502  0.62627739  0.68129629  0.93329212  0.32239727
 -0.97398996  0.14354809  0.75927161  0.36924545 -0.53035786  0.3140333
  1.59464389  0.91073329 -0.50430604  1.44212785  0.02972571  0.67958628
  1.13401932  0.08110143  0.54979008  2.10781498  0.517227   -0.73174552
  0.09134185 -0.5239862   0.48231252  0.37268418  1.03038556  1.05128425
  0.72463321 -0.38330854  0.89621291 -0.55841794 -0.12961412  0.61456771
  0.87582058  0.78484542  1.11705958 -0.87876338  1.13612731  0.45450852
 -0.7745552  -0.65765692  0.56307846  1.06044978  0.76106009  0.49872683
  0.62720263  0.0699526  -0.67880173  0.41251208  0.90856112 -0.8909342
 -0.11168835 -0.56958887  0.85731911 -0.56853209  0.20658052 -0.42122035
  0.41053667 -0.09068706  1.34658431  0.47972792  0.48661377 -0.11548356
 -0.02217213  0.30219212  0.54358559  0.2712794  -0.29219911  0.60338961
  0.3476343   0.65660879  0.03406797  0.87282047 -0.34940792  0.13560319
  1.11495851  0.2586416   0.39124636  1.43585174  0.69151163 -0.87190998
  2.09762037  0.476947    0.27236687 -0.46076722  1.53916758  0.0525034
  0.28257883  0.35527896  0.28403155  0.87726716 -0.56345725 -0.1919188
  0.82904575 -0.28376269 -0.69900556  0.9176915  -0.88513603  0.45141802
  0.26841734  1.29219329 -0.15477395 -0.2953181  -0.32131878 -0.80729194
  0.54583744  0.91019644  0.64219423 -0.21499529  0.5410682  -0.95536208
 -0.21033333  0.85541245  0.31495787 -0.16906154 -0.54066108  0.85433432
 -0.16166032  0.83272259  1.05758927  0.79125414  0.19048522 -0.87579867
 -0.66321842  0.63440443 -0.70007247  0.88720916 -0.4342022   0.94066282
  1.90043528 -0.06331702  0.79203396  0.22076695  0.26402684  0.64546883
 -0.87658216  0.49318711 -0.28941186  0.14350658 -0.04115849  0.16932777
 -0.84824639 -0.02138814  1.02137149 -0.47958168  1.18040253 -0.61724326
 -0.3163184   0.66955884 -0.18674719  0.31828799  0.05571519  0.15302685
 -0.42995009  0.48875554  0.20096518  0.98028727  0.37123781  0.81749411
  0.38477391 -0.7068602   0.63705426 -0.35851176 -0.02018859  0.36405403
  0.16832983  0.59050867 -0.14707034  1.27716508  0.20789554 -0.96673159
 -0.1207246  -0.05710048 -0.72402527 -0.88663686  0.57718301 -0.70628316
  0.77866763  0.34063848  0.09593064 -0.87497262  0.59783407 -0.6298679
  0.40954668 -0.23393964  0.81425116 -0.73910852  0.09055216 -0.09650164
  0.31527823  1.36290638  0.91454158 -0.78382886  0.85176862 -0.06791619
  0.6571477  -0.50044579  0.28568101  0.19848767  0.11566269  0.70814182
  0.07585806 -0.45033344 -0.4959459  -0.22320038 -0.10320488 -0.47231064
  0.22300662 -0.19637197  1.38740901 -0.052027   -0.76897506  0.06265332
  0.23670863 -0.27355256  0.78243527  1.43403298 -0.54412824  0.51920158
 -0.14021917  0.25515094  1.1825167   0.31408794 -0.72925446  0.62067872
  1.45841576 -0.12284803  1.79751516  1.67426692 -0.78413915 -0.79058294
  0.03138259  0.08965202 -0.41025354  1.00659362  0.08265976  0.11114732
  1.73180714 -0.3990746   0.01060386 -0.98325797 -0.49178011  0.91751816
  0.37401635  0.46258348  0.97131341  0.27493308 -0.83979504  0.38150848
  1.30712745  0.43223186 -0.61050409  0.02122283  0.71359833  0.55758489
 -0.16248273 -0.39528916  0.1965867   0.35456856  0.16369373 -0.49700387
  0.85251752 -0.18917952 -0.27910628  0.44807213  1.49687097 -0.96142188
 -0.63314368 -0.54783756  1.20212725 -0.94939861 -0.9234063  -0.59722937
 -0.28203444  0.70166588 -0.89707     0.73985745 -0.80822893 -0.13223468
  0.47307681 -0.99070513 -0.90377124  1.3619205  -0.86652426 -0.26805281
  0.44100598  0.6254673   0.65024937  1.02597781 -0.50948029 -0.10660115
  0.03429878 -0.60919848 -0.15784555  1.00968886  0.40090054 -0.03204764
  1.03408748 -0.3032563   0.41295    -0.72089517 -0.5765577   1.49306968
  0.02262255 -0.46789009 -0.01687316  0.78503309  0.01479351 -0.79263196
  0.92075678  0.14158237  0.00801242  0.11737232 -0.07761113  1.82782849
  0.8415533   0.32503343  0.53665823  0.40373907  0.89611192  0.48711623
  0.9161771   0.85722238  1.51013517  0.52594919  0.8330392   1.72446478
  0.8570299   1.64956703 -0.15646142 -0.62281392  0.0199361  -0.66537428
 -0.03903201 -0.50486479  1.37791894  2.17158097  0.71347854  0.60745044
 -0.47007083  0.81298848  0.08747406  0.3461976  -0.1618798   0.77940103
  0.41276121  0.50114989 -0.16226076  0.02725288  2.03255769 -0.88375515
  0.47187728  0.58745747  0.47130005  0.36834245  0.68055021  2.06208769
  1.42428761 -0.91433232 -0.30743637  1.20265325  1.23590783  0.09501255
  1.45089336 -0.51208158  1.14043392  0.33631952  1.50078613  0.68824466
 -0.87627427  0.19385499  0.39370834  1.69974068  2.05641361  0.9482828
 -0.87433565  0.41500116  0.16803543  0.31733736 -0.73685326 -0.9654524
 -0.79663321 -0.10101183  1.69166861 -0.89219625  0.01455564 -0.33259336
 -0.77768745  0.79274674 -0.22366353 -0.91179539  0.24714011  0.86133468
 -0.55163574  1.14053514  0.60375105  0.66402195  0.09422686  0.71819913
  0.24345492  2.72748665 -0.92604969 -0.59443536  2.07057122 -0.72639756
 -0.3368476  -0.41579145  0.70835296  0.69825597  0.58523496 -0.16695766
 -0.43696648  0.9605437   0.55981366 -0.96891225  0.96492476 -0.91502229
  1.56759352 -0.03108038  0.14914955  0.94545851  0.89625327 -0.61445881
 -0.84132796 -0.26263025  0.04057691  1.11018895  0.07063638  0.13083083
  0.86074066 -0.63485079  0.57567173  1.40789769 -0.00835907  0.14741114
 -0.58363393  0.73208555  0.58491816  0.30011972  1.18669047 -0.47254194
  2.11684854  0.22751238 -0.52412233  0.74423575 -0.64339826  0.20943595
 -0.43869391  0.39337728 -0.82981508  0.63580385 -0.75229928 -0.233542
  0.5007248   0.26356712  0.97903939  0.55645975 -0.92500194 -0.15211107
  1.22059511  1.27040594  0.90946506  0.68861885  0.32904033 -0.71857063
  0.83716065 -0.99795895 -0.80387406 -0.63206224 -0.89275315  0.55913709
  0.00537128 -0.79680701  1.38079432  1.16632958 -0.26139192  1.32286998
  1.27375656  0.36933951  1.28260722  0.8038615   0.98136285  0.40742143
  0.78313951  0.50895044 -0.6916578  -0.13178101 -0.10346791 -0.01945497
  0.84386399  0.53292924  1.46727153  0.72899975  0.55681222  0.91988446
  0.26586734 -0.51394855  0.72278027 -0.67069716 -0.82364542  1.97867881] [ 1.33210609e+00  6.80877250e-01  9.15299311e-01  8.83288765e-01
  2.48137145e-01 -6.64166127e-02  5.58905183e-01  7.80662555e-01
 -2.18808499e-01  5.87726189e-01  7.56374522e-01 -4.33972170e-01
  4.04613284e-01 -8.43341336e-01  5.04248819e-01  3.70923672e-01
  6.73908717e-01 -8.45596056e-01 -5.44356941e-02  5.33478563e-01
 -4.91226469e-01  2.52655903e-01  5.28123903e-01  2.14281746e-01
 -7.40734598e-01  2.80888313e-01 -3.17290313e-01  4.07360476e-01
  1.08657220e+00  7.10053710e-01  1.20054835e+00  3.77991391e-01
 -5.88759732e-01  4.79023162e-01 -2.75640252e-01 -5.48564657e-01
  5.03113742e-01  7.12903171e-01  1.21783466e-01 -9.37184803e-01
  8.47775081e-01 -6.66685348e-01  5.94553427e-01 -4.58387576e-01
 -5.22212641e-01 -3.60137241e-01  1.35407399e+00 -1.95805911e-01
 -8.05386934e-01  5.74071557e-01 -8.75615977e-01 -1.73387808e-01
  6.89076507e-01 -4.03412190e-01  1.03341300e+00  6.90728747e-01
 -9.41408148e-01  7.34399474e-01  1.08612313e+00  1.07718545e+00
 -2.87309579e-01  1.56460299e-01  7.61493951e-01  4.86334267e-01
 -4.34418192e-01 -1.11091105e-01  9.49857929e-01  2.62289427e-01
 -1.79627923e-01 -2.08678375e-01  1.72907749e+00  1.22100183e+00
 -1.39171554e-01  2.98405396e-01  1.67301306e+00  2.86465445e-01
  8.06625881e-01  3.17299591e-01  4.91000625e-01  2.12509229e-01
  7.63619561e-01  5.72544752e-01  4.76668017e-01 -3.66035783e-02
  1.19096940e+00  7.58524254e-01  1.21451542e+00 -3.29596193e-01
  1.01623721e-01  3.72679941e-01  9.13443974e-01  5.75981642e-01
  8.50283356e-01  9.27150304e-01  7.01231704e-01 -7.87120889e-01
 -6.02309724e-01  9.61105099e-01  5.57895521e-01 -1.39181360e-04
  1.52202667e-02 -1.18464796e-01 -9.15003849e-01  8.86296071e-01
  3.35080860e-01  2.31669670e-01 -8.82124367e-01  8.42557187e-01
  5.90520187e-01 -2.55260029e-01  1.81123496e+00 -1.30298156e-01
  2.02284588e+00  2.60289892e-02 -7.35271442e-01 -4.06206349e-01
 -4.46323847e-01 -1.93674057e-01  1.63111727e+00  2.19875266e-01
  3.38825217e-02  7.01090871e-01  3.85121897e-01  1.06089303e+00
  9.00601405e-01  3.43506151e-02  6.78906706e-01  2.57568619e-01
  7.23904304e-02  3.45437139e-01  1.44439846e+00  6.89220833e-01
  4.99154848e-01  6.16141995e-02 -6.46661669e-02  8.14062315e-01
  1.13665921e-01 -7.06363600e-01  1.37369187e+00  1.87590539e-01
  1.54979825e+00  1.08879506e+00 -1.14293861e-01  4.65842707e-01
 -5.19672574e-01  4.39081542e-01  6.99743725e-01  5.44066368e-01
 -5.37043210e-01 -4.18192877e-01  5.65848457e-01 -4.72275807e-01
  1.69638359e-01 -1.77498013e-01  5.66073743e-01 -4.92762356e-01
  1.21424338e+00  1.08850089e+00  5.12306448e-01 -5.42914922e-01
  4.08650443e-02  7.64250172e-01  1.59915547e+00  1.21030119e-01
 -6.60500448e-01  2.17502273e+00 -3.26769801e-01 -6.13163766e-01
  5.08509108e-01 -7.88186069e-02 -9.98436374e-01  9.24249840e-01
  6.30760768e-01 -5.67329796e-02  2.07993705e-02  1.28203270e-01
  1.09612923e+00 -1.53311816e-01 -2.46734100e-01 -8.47937115e-01
 -8.45545630e-01 -4.27387085e-01  1.70724513e+00 -8.49676982e-01
  1.72422487e+00  5.59117084e-01  1.61258327e-01  6.14629877e-01
  6.73680646e-01  6.18827741e-01  1.43370742e-01  2.66170564e-01
 -8.15252765e-01  9.43049164e-01 -6.92447872e-01 -3.03614833e-01
 -6.76468628e-01 -2.38867580e-01 -4.55171752e-01 -3.42321716e-01
 -8.70625704e-02  5.13284561e-01 -9.72384026e-01  2.83704520e-01
  6.57699849e-01  4.18721433e-01  1.55784078e+00  7.99351428e-01
  4.90209804e-01 -8.62971973e-02  6.89660235e-01 -8.42073654e-01
  6.11233780e-01  3.71331914e-01  9.10265920e-01 -4.32338581e-02
  3.85507960e-01  4.39600108e-01  6.12135637e-01 -1.04369407e-01
  1.11146635e-01  1.72160344e-03  1.18840607e+00  4.67675098e-01
  1.00898280e+00  1.27327084e+00 -6.46336837e-02 -9.17876976e-01
  1.42361602e+00  8.87986669e-01  5.21258482e-01 -6.02188742e-01
  1.89103944e+00  1.71366199e-01  6.10488494e-01  6.88904211e-01
 -4.02256567e-01 -5.13752426e-01  7.90875404e-01  2.20351672e-01
 -1.65811390e-01 -7.06249107e-01  4.94914105e-01 -1.18773387e-01
  7.86363009e-01 -2.38137341e-01  1.10469047e+00  7.18883643e-01
 -2.34716294e-01  1.03951520e+00  2.79018178e-01  7.07456386e-02
  5.31083220e-01  9.53841619e-01  9.92281518e-01  9.22233346e-01
  4.00929121e-01  1.34395707e-01 -2.34111653e-01 -5.82790166e-01
  5.18622017e-01 -7.94905663e-01  9.75179768e-02 -5.17885552e-01
 -2.68550956e-01 -7.22490331e-01 -2.96383645e-01  1.00332675e-02
  5.36077584e-01 -8.33252030e-02 -1.04500873e-01 -7.51352527e-02
  2.68989513e-01 -5.31383555e-01 -9.97564743e-01  6.50800557e-01
  1.74720828e+00 -6.94132006e-01 -2.63906777e-01  7.73756385e-02
  9.64212221e-02 -8.09121508e-01  7.31543253e-01 -3.71515795e-01
  1.90620010e-01  9.85457817e-01 -4.23099900e-01 -7.22211613e-01
  4.58820962e-01 -4.50656435e-02  4.06850233e-01  1.61444577e-01
  1.37241371e+00  1.54542884e-01 -2.67923329e-01 -7.90080072e-01
  1.14757397e+00  5.28712542e-01  4.70115051e-01  9.71439396e-01
  2.25442641e-01 -6.13473609e-01  9.98931991e-01  8.78205904e-01
 -9.63583065e-01 -6.01667613e-01 -8.23441952e-02  1.96507603e-01
  6.43266539e-01 -8.51547192e-01  1.28639199e+00 -9.89447282e-01
  2.54210011e-01  3.11727762e-01  3.15391183e-01 -6.31949465e-01
  1.48573037e+00 -1.73125472e-01  7.92499875e-01 -9.93998715e-02
 -4.76924458e-01 -4.68991904e-02  3.43740232e-01 -1.67986810e-01
  5.57561855e-01 -2.24751497e-01  3.00660651e-01  6.44093642e-02
  1.02852937e-01  8.66498815e-01  1.28089674e+00  6.12919265e-01
  9.18975282e-01 -8.58974779e-01  5.15343297e-01  7.39225203e-01
 -4.92087236e-01  9.90522228e-01  3.32304759e-01  4.61447232e-02
 -7.97430410e-01  8.53225952e-01  1.20415848e-01 -3.02900256e-03
  1.04773791e+00 -6.99135808e-01 -7.25497085e-01  7.64036495e-01
  3.43616656e-01  8.09395472e-01 -7.10397714e-01  9.06478577e-01
 -3.23731627e-01  2.81580102e-01 -9.99269156e-01  6.33741510e-01
  3.53373915e-01  9.59245034e-01 -3.41968651e-02  6.73934878e-01
 -5.42700086e-01 -3.88972974e-01  6.60413362e-01  1.05341469e+00
  7.73588958e-01  7.22352366e-01  9.15775307e-01  6.04286011e-02
  1.45128627e+00  8.60232134e-01 -9.26673495e-01 -2.41246813e-01
  1.46620526e+00 -3.22944603e-01  1.61912237e+00  2.02259586e+00
  2.10450135e-01 -1.24543569e-01  3.09026217e-01 -9.45926649e-02
 -3.48910383e-01  7.52251826e-01  5.52143212e-01 -9.25805701e-01
  1.40769468e+00  2.93949297e-01 -4.98631032e-02  5.64593130e-01
  4.63541077e-01 -8.85786072e-01 -1.78141737e-01 -5.66167480e-02
  3.13159746e-01 -8.66393208e-01  2.77604906e-01  4.41873552e-01
  1.16642569e+00  9.96872660e-01 -1.88547821e-01  3.50896697e-01
 -6.74772390e-01 -3.03952225e-01 -5.27397016e-01 -7.89590333e-01
  1.90837530e-01  1.18427844e+00  7.69545016e-01  3.09606124e-01
  7.16871323e-01  1.04456576e+00  4.28137044e-01 -1.00779092e-01
  1.98086425e+00 -4.72254970e-01 -1.76225406e-01  7.67213682e-01
  7.22205147e-01  9.15002003e-01 -5.29968953e-01 -6.86375074e-01
  5.86072767e-01  5.84139909e-01 -4.53275663e-01 -6.30182403e-01
  2.79988201e-01 -6.01756206e-01  8.62059776e-01 -3.01596972e-01
 -5.70900335e-02  2.90256467e-03 -6.17969401e-01  1.27835909e+00
 -4.89980152e-02 -7.66082784e-01 -1.03754635e-01  1.27582176e+00
 -6.47410856e-01 -1.48358028e-01  3.32356585e-01 -7.50200190e-01
 -7.97148491e-01  3.68644232e-01  6.30620265e-01  4.05239454e-01
  3.04361285e-01  4.37752895e-01 -1.88772002e-01  8.86224015e-02
  9.84017898e-01  1.55346731e+00 -9.69424879e-01 -5.67302575e-01
  3.02760759e-01  3.76256313e-01 -7.77247602e-02 -5.73587498e-01
  9.66309109e-01 -9.38982238e-01  1.47455121e-02  1.09938001e+00
  9.30344706e-01  1.13075698e+00  2.01683681e-01  7.95360667e-01
 -7.24671044e-01 -8.55703299e-01  6.80693775e-01  6.53571793e-01
  9.78334962e-01  1.30159887e+00  7.75496894e-01 -3.70087673e-01
  1.05372644e+00  1.10605088e-01 -1.82901705e-01  9.44170088e-01
 -6.43045881e-01  2.31640935e-01  8.51122538e-01  9.24029424e-01
 -6.97396177e-01  1.33809346e+00  9.84830454e-01  5.16905250e-01
  8.81705898e-01  3.33245709e-02  1.54679092e-01 -4.30602837e-01
  8.35552191e-01 -9.58755544e-01 -7.16540618e-01  6.45150165e-01
 -2.30609898e-02  2.96683420e-01 -3.02733032e-01  6.29335520e-01
  1.86371783e+00 -6.74596315e-01  9.89068847e-01  4.02246231e-01
  2.93339408e-01  4.55771517e-01  5.21816113e-01  1.97451132e-01
  1.04489076e+00 -8.97069399e-01  6.76994690e-01 -6.30232000e-02
  1.29369652e+00 -6.95582377e-01 -2.28558077e-01 -4.76702714e-01
  8.63143131e-01  8.42187767e-01  6.13481941e-01  9.16985202e-01
  1.04461297e+00  5.97675302e-01 -7.41816148e-01  6.91039694e-01
  1.11614451e+00  9.87636660e-01  7.67189027e-01  2.04235479e-02
  5.16157356e-01 -5.38614089e-01  7.36790465e-01 -1.32184707e-01
 -7.31491939e-01  5.80182494e-01  1.17885685e+00  7.57890970e-01
 -1.88985571e-01  4.33943475e-01  4.72081009e-01  9.05658509e-01
  1.33286886e+00  5.57000084e-01  6.34017093e-02  2.64131382e-01
 -7.08253879e-01  1.96211694e+00  1.23201718e+00  1.09242495e+00
 -2.03407062e-01  3.68395418e-01  2.03753546e-01  2.43775304e+00
 -2.78498850e-01 -6.28282886e-01  1.18228597e+00  2.48411463e-01
  1.04251343e-01 -7.71010800e-01  8.78656517e-01 -9.49838529e-01
 -3.01545037e-01  6.58268373e-01 -5.28507466e-01  6.23592016e-01
 -4.37853551e-02  1.98964878e-01  1.04483233e+00  9.68990360e-01
  1.68599611e+00  1.61637432e-01 -1.25120945e-01  9.45945333e-02
 -7.12979334e-01 -5.13287788e-01  1.72021721e-01  1.19472187e-01
  1.33166404e-01  5.13574719e-01 -8.35545387e-01 -4.34200096e-01
  2.33168324e-01  9.38022043e-01 -1.22443418e-01  5.29594149e-01
 -9.05110652e-01 -8.53366420e-01  2.73744534e-01  4.53915900e-01
 -9.37883450e-01  1.55796464e+00  8.20574859e-01 -1.51994771e-01
  1.02515000e+00  9.07628856e-01 -2.36303734e-01 -7.55286891e-01
  3.19273523e-01  2.86740714e-01  1.00787764e+00  1.25483017e+00
 -9.82387808e-01 -7.50152882e-01  5.60149244e-01 -8.96194812e-01
  2.87866412e-01  1.95808402e-01  7.17403811e-01 -4.53177769e-01
 -7.59347671e-01 -9.47162521e-01 -3.00404613e-01  9.23562708e-01
 -5.65576304e-02 -3.63667233e-01  1.69861883e-01 -5.15377402e-01
 -8.74731898e-01 -8.20636594e-01  8.08706792e-01 -1.84972617e-01
 -2.33219869e-01  7.37051234e-02  8.13811256e-01  1.97025515e-02
 -2.97653241e-01  1.32913239e+00 -5.63911896e-01  5.62059886e-01
  1.46865379e+00 -5.56937581e-01  9.21789252e-01  2.12848461e-01
 -1.29977738e-01  5.15331782e-01  1.66839723e-01 -2.00750106e-01
  2.27113497e-01 -8.58323961e-01  2.50640562e-02  6.43875024e-01
  8.80180635e-01 -9.42449063e-01  2.09772515e+00 -6.28477353e-01
  7.01116267e-01  3.50983105e-01 -4.57102574e-01  6.17617847e-01
  6.81425804e-02  8.55202934e-01 -9.72687517e-01  1.84226537e+00] [ 0.26708269 -0.74437577 -0.52918425 -0.32792008 -0.65774145  0.3813127
 -0.52323307 -0.58038896  0.47313822 -0.24955274 -0.6955528  -0.09872375
  0.21292667 -0.40318232  0.0572692   0.33881192  0.27496479 -0.35244997
  0.33528068 -0.91569292  0.0820536   0.83705143 -0.13389458 -0.34172081
  0.87652665  0.82407273 -0.08211801  0.83921328 -0.30260549  0.39510129
  0.0049873   0.25394148 -0.2365659   0.61355791 -0.75771383 -0.076417
 -0.20402994  0.2462082   0.06589546 -0.92015861  0.27443436  0.52513631
  1.03423285 -0.69948087 -0.1998262   0.83667636  0.24958532  0.61475587
 -0.45202575  0.48606838  0.85195263 -0.62860852  0.75974482  0.40183882
  0.30372204  0.73085059 -0.81741665 -0.54371588  1.02497996 -0.35779198
  0.43653531  0.10967567  0.2875231  -0.5292969  -0.70700344  0.31867441
 -0.13179984 -0.9245753   0.94078024 -0.2287557   1.40519992 -0.19624686
 -0.4847181   0.21710316  0.34401779 -0.19886367 -0.21754914  0.02975026
 -0.80828442  0.07855893 -0.26717739 -0.20136307 -0.80025266 -0.01453724
 -0.44902485 -0.32191069 -0.40868981  0.74194515  0.48228158 -0.43767186
 -0.49158853  0.56080621  0.99555283 -0.10600381  0.54734106  0.67600219
  0.06273008  0.57643818 -0.84329262 -0.35497714 -0.4377666   0.8216254
 -0.29169746 -0.55261494 -0.32871289  0.34887627  0.17175569  1.05903472
  0.22383603  0.8704637   1.06873952  0.53284944  1.72612698  0.43622022
 -0.33126134  0.49262837  0.83361311  0.25677563  0.70126213 -0.68393472
  1.01627142 -0.88378458 -0.86459027  0.13328917 -0.16558529  0.65267753
 -0.63340524  0.57764487  0.64661695 -0.66215939  0.36738154 -0.33943758
  0.85286794  0.89024527  1.06551878  0.87043485 -0.82113383 -0.14498879
 -0.10253814  0.417825   -0.02994883 -0.99971896  0.79099825 -0.7511233
 -0.02248194 -0.27907208  0.74636018  0.73779143 -0.35749628 -0.75316649
 -0.49395823  0.87512861 -0.75414184  0.51575509 -0.19892035 -0.30322078
 -0.29626193  0.07809565  0.86772829  1.04276376  0.41145897 -0.57601202
  0.5716186  -0.64068287  0.67698502  1.56251244 -0.62272577 -0.75313805
 -0.07318255  0.5869608   0.79038738 -0.72954126 -0.45047799  0.01832928
  0.2615735   0.16878429  0.48215109  0.19326738  0.78948022 -0.45180196
  0.34793406  0.45946398  0.68515728  0.7697155  -0.18762853 -0.01400237
 -0.30579404  0.80788141  0.21579356 -0.27684638 -0.05396394  0.89072491
  0.06718833  0.07900274  0.7964174  -0.02429223  0.65798675  0.66537493
 -0.13922961  0.25253263 -0.32976806  0.5454625   0.24070602 -0.72944287
  0.67070472  0.36639174  1.00700761 -0.1630731  -0.91494376 -0.41569276
 -0.33022395 -0.89336336  0.32137948 -0.19356021  0.206302   -0.86575232
  0.64756966  0.61806049  0.02381838 -0.71622005 -0.45693853  0.32917761
  0.53863246  0.103513   -0.45429824 -0.18972751  0.43776742  0.79479506
 -0.09120479  0.28908261 -0.05834839 -0.95577791  1.28684619 -0.85920487
  0.40604819 -0.80557222  0.35029954 -0.59621363  0.64036579  0.97626848
  0.53493653  0.12008639  0.35291066 -0.27789491 -0.94572174  0.85517442
  1.01296699 -0.61939648 -0.69927238  0.04619858  0.90269599 -0.66485819
  1.06712758 -0.50098699  0.2958818   0.02435801  0.54067306  0.42344242
  0.58861577 -0.99840073 -0.43827884  0.17250069  0.83298292  0.54384451
  0.52042597  0.70322216  0.24857781 -0.69141629 -0.82855206  0.59389047
  0.95493583  0.19728845 -0.38191783 -0.61334816  0.25394142 -0.28243257
 -0.12257947  0.34475928  0.30164962  1.00702976  0.93377143  0.50527492
  0.03569819 -0.44177316  0.8156669  -0.81508064  0.8217603   0.93405002
 -0.5252669   0.71826145  0.79299005  0.44680568 -0.17756155 -0.79990022
 -0.59158405 -0.41201078  1.24048167  0.54736876  1.25098023  0.98340769
 -0.43459377 -0.01042756  0.06730199 -0.5184964   0.19018477 -0.83269344
 -0.98750772 -0.85901966 -0.60138321  0.08665698  0.57631028 -0.6804587
  0.59358021 -0.13442192  0.54203374 -0.34634596 -0.33958892 -0.65225828
  0.12371599 -0.43183772  0.28634622 -0.8003152  -0.88339028 -0.11987031
  0.02216244 -0.7876154   0.11447444  0.95951911 -0.18595502 -0.72225283
  0.96237717  0.22293836  0.43489334 -0.0682631  -0.70627068  0.80538723
 -0.97307734 -0.42703358  0.72650825  0.63438546 -0.06449352  0.02712972
  0.97571031 -0.56200139 -0.71857522  0.63855945  0.28615125  1.12690605
  0.01360491  0.24973833  0.90026828 -0.7163893  -0.03253562  0.35598535
 -0.30874053 -0.92795322  0.14045215  0.98306248  0.12608948 -0.65216919
 -0.57635318  0.34889369  0.35437416 -0.34441185  0.33598407 -0.92187495
  0.82217711 -0.15835333 -0.27006696  0.00438902  0.35357118  0.12802942
  1.14104968 -0.61005662  1.58380531  1.18540166 -0.93393523 -0.62543857
  0.65794082  1.10282358 -0.14219049  0.93896715 -0.56110215  0.72249203
  1.0593484  -0.13184416  0.99179856  0.42935889 -0.51275797  0.85770952
 -0.80023514 -0.81154572 -0.70059553 -0.7574402  -0.25159212  0.69372645
 -0.78865794  1.27805991 -0.35737862  0.27185908  0.08332584 -0.33209456
  0.19864886  0.22408567 -0.23711329  0.38237904  0.68313289 -0.38730217
  0.61864499  0.52033486 -0.10489346  0.67707587 -0.16038722  0.42178584
  0.0871487   0.84653659  0.94952752 -0.99394321  0.63649446 -0.9497079
 -0.74191884  0.32732206 -0.53647016  0.52459506 -0.03655773 -0.30931556
 -0.8798233  -0.26927466 -0.37824763 -0.16952466  0.65243032  1.1238103
  0.20707534  0.14359919 -0.39959655  0.56663127 -0.5410091  -0.26766055
 -0.80066193  0.02011625  0.99032873 -0.46244574 -0.98508562  0.10201306
 -0.20132118  0.9473433  -0.77558656 -0.60175439 -0.00460145  0.46870129
 -0.34961931 -0.65259018 -0.30821074  0.39111936  0.13283329  0.62679933
 -0.24709392 -0.13759037 -0.39689263 -0.73940469  0.64663968  0.51406359
 -0.55118709 -0.33774343  0.17904137 -0.49839677  0.78958148  0.41419243
  0.0481988   0.5082605   0.01090199 -0.42152814  0.79567669  0.11605145
 -0.75117779 -0.21317172 -0.37986207 -0.12010397 -0.95919183 -0.34706654
 -0.94502665 -0.0866035  -0.50018518  0.6261632   0.59900043  0.70777691
  0.52016108  0.25194765  0.79291224  0.29358572 -0.02489666  0.94584067
  0.17549819 -0.47898442  0.16065504  0.32803855  0.43362272 -0.30403801
  0.85564223 -0.42676373 -0.18685942  0.58962387 -0.23362516  1.00871908
  1.25031227 -0.74817574 -0.22702595  0.63339223  0.30571342  0.52398099
  0.00580616 -0.89077846 -0.73796738 -0.5645191   0.65331635 -0.49282071
  0.1372423   0.14870354  0.18653666 -0.54462747  0.28538006 -0.60769664
 -0.84080201 -0.57699658  0.27892355  0.73900093  0.38957175  0.84412589
  0.27405791 -0.05263822  1.24533142 -0.24405175  0.92570806  0.65495854
 -0.86583147 -0.2860649  -0.67933835  0.71592464 -0.57367194 -0.55546048
 -0.18637213  1.00181619  1.05118869 -0.7131476  -0.41798809  0.30187672
 -0.98399746 -0.01233551  0.22382985  0.53298235  0.25441967 -0.21064603
  0.59900112  0.13969285  0.91133352  0.93648121 -0.64937823 -0.47638999
  0.00443151  0.18539104  0.27209636  0.55905464  1.46738099 -0.12475813
 -0.28481694 -0.76252915 -0.54362504 -0.18540317  0.58201067 -0.66030818
  0.3821831   0.52214033 -0.01816182  0.41836288 -0.48288237 -0.16405213
 -0.44387765 -0.13140209  0.15590167  0.82980878 -0.73561092  0.71874955
 -0.61704114 -0.13920434  0.69264067  0.02689155 -0.6666417   0.97597298
  1.46812495 -0.68546172  0.57395738  0.67580933 -0.33134636  0.21001961
  0.3406054   0.2465796   0.56860897 -0.89613323  0.54038756  0.30187997
  0.46495229  0.91109659  0.56193779  0.93488362 -0.99019639  0.69170067
  0.09763039  0.77388584  1.04767333  0.71813847  0.14553039 -0.68850569
 -0.43685826 -0.28410833 -0.93753196  0.52753954 -0.84705782  0.462468
 -0.03681751 -0.71002216  0.59445357  0.39354033  0.5355366   0.34689194
  0.82499427  0.43974564  0.14787417 -0.52740324 -0.58915063  0.00419349
 -0.39905229  0.53195775  0.74556585  0.91892768 -0.54324883  0.02105679
 -0.93027125  0.91563628  0.92293398  0.3486728  -0.6679303  -0.66970395
 -0.3189609  -0.25479291  0.32727486  0.10764427 -0.4074726   0.46677959] [ 1.27200661  0.13873709  0.13208086 -0.56429465 -0.55865621  0.46829534
  1.0862771   0.52622748  0.83998526 -0.59989289 -0.25127765  0.80376661
 -0.59394763  0.07857845  0.50702595  0.66161742  1.37595089 -0.30408235
  0.65513737  0.46631449 -0.0602938   0.11992189  0.33583293  0.5388291
 -0.83204948 -0.36216452 -0.15477252 -0.33840056  0.80417216  0.50379568
  1.10602902  1.21717003 -0.49353076  0.62065898 -0.01557601 -0.63304334
  0.88054997 -0.39360728  0.12670988  0.78710807  0.01157859  0.89872715
 -0.76161891  0.786437    0.98056105 -0.13995375  0.9507458  -0.35116632
 -0.21786025  0.97680618  0.67338716 -0.14219599 -0.73295587 -0.74597991
  0.92907016  0.60542304 -0.2983636  -0.63628735  0.68401601  1.63092027
 -0.858616    0.56503708  0.38837153 -0.5747504  -0.99169081 -0.91483299
  1.39987138 -0.82238826 -0.51100088 -0.64557499  0.49327332  1.8224764
 -0.11927134  0.72432532  0.51768784 -0.05448572 -0.39408685  0.18059025
 -0.36360054  0.97521459 -0.60785095  0.29848812 -0.01711706  0.39326736
  0.22949142 -0.60565251  0.70009188 -0.0648474  -0.89269139  0.55747485
  0.51803858  0.1282881  -0.51756897 -0.24356791  0.34998275 -0.09954399
  0.33564123  0.10037091 -0.67360072 -0.29599382  0.94138693  0.3218508
 -0.17396188 -0.15470874 -0.24280394 -0.03885606 -0.64898744  0.48966128
  0.742577    0.86848929  0.91091402  1.30521203  1.88047908 -0.44714967
  0.04928579  0.46220048 -0.52898204 -0.07876392  1.28854418  0.71636171
  0.93777356 -0.1726486   0.87292821  0.07985012 -0.29288659 -0.29618983
  0.64774265  0.89906367 -0.0134781  -0.48767833  0.28650509 -0.93879277
  0.94376469 -0.8727494  -0.2277419  -0.60818485  0.68575655  0.32659179
  0.13895803  0.18459401 -0.146365    0.94007823 -0.90354305  0.81625888
 -0.10923862 -0.10713888 -0.96741093  0.70006306  0.62650851  0.2679395
  0.81811682  0.32838876  0.11056526  0.27899431 -0.26317484  0.60467355
  0.99053687 -0.59612613  0.26695225  0.90212826 -0.86232234  0.63246331
  0.70475002  1.35612429 -0.19218985  1.13907255 -0.51444899 -0.73598257
  0.60470938  0.95412385  0.72814801 -0.21823013  1.22905663  0.50670799
 -0.04768625 -0.40516055 -0.14902284  0.7734268   0.22462673 -0.3001987
 -0.31176923 -0.65578429  1.38026886  0.80274534  1.11643576 -0.90667723
  0.70593663  0.78585545  0.58753811  1.18774546  0.27508671 -0.41604229
 -0.90587939  1.15708758  0.81568997 -0.35211029 -0.7849568  -0.42801743
 -0.84161427 -0.32068905 -0.13127359 -0.45463544  0.59564832  0.73050181
  0.63015471  0.51292768  0.06285235 -0.10344435 -0.35019026  0.24007252
  0.58518254  0.22420621  1.03395942  0.7512395  -0.08356665  0.96747015
  1.14929511 -0.57611912  0.28198173 -0.68217794  0.80800047  0.0253195
  1.0538178  -0.36333408  0.63331316 -0.1102803   0.75292723  0.92025319
  0.81929171 -0.6664867   0.89446329  0.53668503  1.49261736 -0.01774331
  1.56215817 -0.25203156  0.90613245 -0.06800105  0.63658018 -0.913638
 -0.9849535  -0.51964145  0.27787271  0.80706346 -0.05500047  0.27848215
  0.01084717 -0.48354     1.01861205  0.93201906  0.83099776  0.85606737
  1.21237817  0.53888828  0.89493458  0.44309375 -0.45744404  0.09624138
  0.13924059  0.63109128  0.24343014  0.45309008 -0.71779099  0.78781377
  0.75468858  0.06963277 -0.41145346  0.74635342  1.05979321  0.51251569
 -0.33676001  0.23551594  0.79887549 -0.30358584  0.51320964 -0.28409339
  1.50808979  0.90390923 -0.52882928  0.8759163   0.6763363  -0.84952148
  0.52989926 -0.33846026  0.05555562 -0.92637149 -0.31238127 -0.38349065
 -0.26221631  0.13911234  0.42951151 -0.61387048  0.33993815 -0.34601292
  0.3876636   0.81962854  1.44167878  0.75839253  0.11460689  0.41656148
  0.08871751  0.05798265  0.9260439  -0.25858203 -0.31138818 -0.54941547
  0.1236432  -0.31760938  0.06853653 -0.19223802  0.377851    0.67656643
  0.09121349  0.5332554  -0.2248504   0.49484063  0.4266501   0.74713322
  0.53428786  0.36011912  0.12148086  0.65381628 -0.56305471 -0.59441364
  0.6530269  -0.26249938 -0.69157808  0.28305757 -0.99022211  0.90047194
 -0.20855122  0.9738017   0.93578179 -0.67371302  0.27178415 -0.31177101
 -0.14926688  1.38125231 -0.43189402 -0.99878408  0.55540794  0.54433293
  0.84474859  0.17299234 -0.29585495  0.82744445 -0.37684079  0.23218644
 -0.71120538  0.33141646  0.35130241 -0.24889075  1.12633137 -0.39926833
 -0.68017097  0.694875    1.31003979  0.6766691   0.96011239  0.45632437
  0.15896717 -0.36378569  0.0928999   0.58899164 -0.12145564 -0.59324045
 -0.14866132  0.78234831  0.70488349  0.37196489 -0.24270396  0.82075142
 -0.11389771 -0.45092837  0.36746418  0.30509592  0.41432158  0.30850964
  0.84255823  0.4791527  -0.83666664 -0.79865994  0.89946582  0.10998025
  0.47786357  0.81747796 -0.45741931  0.21324589 -0.15383383 -0.9443437
 -0.1001779  -0.77245934  0.45038401 -0.82201678  0.21920363  0.88256702
  0.89962072 -0.09296163 -0.65412806  0.28745468  0.26652901 -0.05914494
 -0.45580484 -0.81369418  0.41636282  0.91378539  1.12778992  1.0031894
  0.14150002  0.85797979  0.06736062 -0.44983277  1.60093887 -0.81403663
  1.00880579  0.1256453  -0.02882625 -0.3804733   0.25775067 -0.78502685
  0.79120186  0.76459347  0.63512474 -0.88495527  0.32444334  0.90027419
  0.20402447  0.4999374  -0.2624537   0.16641259 -0.47715071 -0.15147623
  1.39618817  0.25404524  0.93645427  0.10796108  0.1107208  -0.30733391
 -0.72112839 -0.50222672  0.08838589  0.68079949  0.80690127 -0.92251727
  1.0535196  -0.25729944  0.31507371 -0.87979985  0.89537414 -0.02143712
  0.77320837 -0.10766978 -0.84543954 -0.57736238 -0.40243778  0.62797507
 -0.3020726  -0.16815993 -0.90046808  0.94652807  0.7823512   1.43025234
  0.75240735 -0.2443333   0.0624377  -0.24766851  0.10558221 -0.74018458
 -0.65456816 -0.01826014  1.26847369 -0.32548005  0.89875312  0.20288233
  0.06372659  0.87945617 -0.25161822 -0.92843976  0.84248725  0.81763
 -0.45920921 -0.16400784  1.34592866  1.20589835 -0.11051873 -0.26452584
  0.78103043 -0.24925385 -0.70550557 -0.43936024 -0.10863683 -0.74027551
 -0.35741406  0.81116485  0.15863055 -0.61820646  0.30977845 -0.48588659
 -0.48794587  0.0822506  -0.75789196 -0.12650965  0.60540279  0.57270663
  1.29464593  0.3194792  -0.93880935 -0.44871953  0.55785912 -0.07076924
  0.01731572  0.09678147 -0.44428606 -0.83416873  0.86361159 -0.0398066
  0.82545164  0.91538613 -0.49022753  1.15249591  1.26240223  0.17396417
  0.9128634   0.89221611  0.57578686  0.85548159  0.69313402  0.24690265
  0.48630599 -0.1082658   1.082183   -0.64973673 -0.53384483  0.1955981
 -0.27535176 -0.58449109 -0.12332591  0.28220591 -0.31108879  0.06209531
  0.35514973  0.51667684  1.01420135  1.24503995 -0.52393241 -0.34289688
 -0.95529542  0.06781372 -0.56213509  0.6816407   1.17098516 -0.07100566
  0.37929695  0.81802575 -0.41860572  0.95158191 -0.18571445 -0.85722582
 -0.84090645  0.72813448  1.2442401  -0.71774701  1.24521946  0.5768009
  0.89869632  0.69188489  0.02758787 -0.34556831  0.92318404  0.17418681
 -0.68241768 -0.19037557 -0.75040748  0.29251129  0.76305503  0.46460776
  0.96160799 -0.16530828  0.7632721   0.16261643 -0.5533541  -0.1090602
 -0.20858395  0.68779547  0.94604166  1.02875451 -0.0304028  -0.08191767
  0.42377319 -0.03360873  0.38889779 -0.75873259 -0.74944231 -0.80563825
  0.87014796  1.36144522  0.86785249 -0.77772941 -0.77680304  0.1669375
  0.78898607 -0.76972467  0.13683997  0.16313408  0.8718484  -0.71306192
  0.62108343 -0.31025777  0.81007213  0.10637336 -0.44889763  0.34532732
 -0.53366305 -0.3187674   0.47273066 -0.68371916 -0.18298498 -0.78914517
  0.53115091  0.87871399  0.428531    1.09873922 -0.46055636  0.19359885
  0.66790053  0.54505585  0.65430413  0.64747582 -0.40348774  0.29457938
 -0.79348319  0.36019353  0.87098087  0.2928037   0.03514929 -0.16876722
  0.00894484 -0.05506487  0.3680749  -0.94858003  0.09743941 -0.99859522
 -0.33853791  1.0772694  -0.55694644  0.16268497  0.75164813 -0.1357192 ] [ 1.48984924 -0.86790936 -0.48819666  0.92659157 -0.17878672  0.24800375
 -0.06241014  1.1389442  -0.73515493  0.95987819 -0.43045403 -0.78006813
  1.24398568  0.13114754  0.79188489 -0.29474138  0.86802602  0.55833843
  0.65482575  0.05249848 -0.81892915 -0.55115864  2.06266961 -0.27386099
  0.62465167  1.78420546  0.6974588   0.40866189  1.35501493 -0.88117243
  1.50142235  0.99587051 -0.7939797  -0.57598446 -0.95161185 -0.5846693
  0.69667258  0.95679031  0.2617899   0.66441989 -0.70670118 -0.10973434
  0.45087688  0.18726306 -0.82851155 -0.7160698   2.7993492  -0.36313866
 -0.82328121 -0.57929761  0.31048973  0.77969147  0.63879109  0.73488017
  0.83670532  2.34122069  0.29748466 -0.78414369  1.20145121  1.08953256
 -0.51104596  0.97612336 -0.75575768 -0.01042443 -0.83490556 -0.06772103
  1.96848093  0.63423214 -0.91483388  0.43070178  0.5587585   2.76472539
 -0.44882015  0.98398105  1.34655036 -0.9956961  -0.10588409 -0.44773628
 -0.3874683   0.46695198  0.25586196  1.97393905  0.76546294 -0.83405936
  2.33127754  0.26429193 -0.04922894  0.68772953  0.31283081 -0.89998437
  0.58486773 -0.7726825  -0.08602616  0.42731443  1.07177959  0.34365984
 -0.20023944 -0.71825409 -0.33830522  0.03014496  0.81052709 -0.76021642
 -0.33706727  0.50124235  0.59925621  0.13432887  0.73016004  1.05912344
 -0.40295489  1.19018835  0.99205107  1.4766682   2.85594281  0.48643601
 -0.02162882 -0.24096543 -0.17876499  0.61626155  1.8061691  -0.55743652
  0.84315758 -0.5518325   0.21948164  1.45629376  0.73320265 -0.92318923
 -0.67601014 -0.7170371   0.5984015  -0.89538926  0.01875568 -0.52650482
  0.72954427 -0.61515712  0.54998953  0.23995707 -0.54920177  0.86474285
  0.38054906  0.99586552  1.56698126  0.11029091 -0.80112656  0.38741104
  0.70274961 -0.06331949  0.13801461 -0.76498282  0.64017057  0.28226474
 -0.95518297  0.47084118  0.23297532  1.5725104   0.24389129  0.75915762
  1.36951214 -0.21467256 -0.15476821 -0.06910222 -0.62470405 -0.67199761
  0.09784806  0.98447174 -0.75507649  2.12738364 -0.1784621   1.05044955
  0.35213541 -0.59904717  0.04901673 -0.78069998  0.91426059  0.83977746
  0.87942508  1.22671535  1.51937303  0.80841967 -0.73512413 -0.60372768
  0.2599385  -0.73613449  1.42150563  0.64155047  2.05046918  0.52927907
 -0.22093911 -0.46064233  1.06275463  0.44121387  0.34286096 -0.82542057
 -0.68304077  0.2717895  -0.49635508  1.04167233 -0.3719565   0.65020478
 -0.12860798 -0.95142192  1.07593276  0.94906869  0.27662857 -0.36995049
  1.75211422 -0.4240614   2.69227563  0.1610765   0.14264369  0.97655585
 -0.88968513  0.38124941 -0.37958183 -0.47686278 -0.27225585  0.14015572
  0.10688925  0.83791222  0.60547782  0.36258889  0.84887549  0.31075624
  0.55856592  1.68061802 -0.18383928  1.16032094 -0.57332496 -0.66134625
  2.46872     0.02583648  0.04292567  0.34112808  1.40738295  0.77701321
  0.89706591 -0.53753512  0.93912889 -0.5032681   0.01856589 -0.12825056
 -0.014319   -0.17302147  0.13575296  0.1032525  -0.34112568 -0.98286296
 -0.07180496  1.07680565  0.17708786 -0.52961224 -0.84897641  0.07626907
  1.12391922  0.71507972  0.19371579 -0.49124141  0.61768217  0.28183034
 -0.90348232 -0.42658012 -0.70404618 -0.04193262  0.2980612  -0.73914706
  0.6193714   0.50427676  0.64479203  0.00837608 -0.96514605 -0.74055395
 -0.62073548 -0.94792246  0.2874154  -0.28975542 -0.53742854  1.67481717
  2.11843019 -0.89771686  0.59879912  1.50930226  0.43483046 -0.53376701
  0.23202529  0.92450672  0.10477869  0.6465851  -0.15697482 -0.92198348
 -0.57040045 -0.85285063  1.51477042  0.87558509  1.30375455 -0.23240401
 -0.11051772 -0.49247941  0.34087408 -0.96062895  0.42685711 -0.29736102
  0.13325751 -0.41601449 -0.85987364 -0.82572259 -0.11093388  0.75841785
 -0.75281156  0.77975307 -0.31443201 -0.96996978  0.8785224   0.4070932
  0.61193037  1.34663717  1.47668696  0.88666558  1.32736832 -0.93791319
  0.55674679  0.7631908  -0.44897654  0.96562336 -0.6683422   0.41747142
  1.44811925 -0.89717526 -0.68354008 -0.82586826 -0.83559166  0.26695577
  1.37293959 -0.3823884   0.3685063   0.77723778  0.87685654  0.71662833
 -0.74459905  1.523314    0.13522835  0.10505353 -0.09504854  0.08180676
  0.22310807  0.27163243  0.73929225  0.6368539  -0.641136    1.50754517
 -0.38887299 -0.90203846 -0.82986547  0.99120703  1.06339696  0.36383129
  0.03428185  0.55858791  1.50623661  0.38203861  0.71439139  0.1103152
  0.33710925  0.18528726  1.45832171  1.22149226 -0.89079257  0.47347853
  0.60796262  0.62640228  1.39212464 -0.50504425  0.09507783 -0.19617319
  0.07047844  0.39865011  3.51068667  2.0701356  -0.3782335  -0.13998934
 -0.77435035  1.60897023 -0.4101581  -0.24670027 -0.77399558 -0.01730951
  1.71302303 -0.03331417  0.36502782 -0.66978615  0.50718414 -0.95908451
  0.34138189 -0.27984345  0.32898138  0.37205219  0.24316428  0.89635602
 -0.42576296  0.57125003  0.36873139  0.07354318  0.05414511  0.51053394
  0.45666991 -0.2550101  -0.90911884  2.25115773 -0.14732762 -0.06043366
 -0.64188206  0.76282217  0.09990898 -0.59797501  2.13736747 -0.19903323
 -0.19054688 -0.9117385   0.42782109  0.18759782  0.17034495  0.59728203
  1.0285458  -0.46615416 -0.45443926 -0.26688838  1.22005382 -0.69693537
  0.21086453 -0.31641089  0.88266455 -0.69563049 -0.06360145  0.41159024
  1.22869007  0.84015303 -0.83375206  1.51696411  0.18552999  0.58341897
 -0.07902176  0.90233189  0.41532198  1.36684995  0.43422193  0.14286931
  1.59573288 -0.26454962  0.71649838  0.38600009 -0.99732721  1.30771385
  0.18409104  0.31448068  0.0186584   0.04387435  0.40205567 -0.37878588
 -0.69772792  0.46405064 -0.16276295  0.41651607  0.70191553  2.64733911
  0.09906166 -0.17129705 -0.7782796  -0.34705481  0.62134882 -0.44626253
 -0.06536717  0.67493217  1.45194507 -0.92728242 -0.77779293  1.62329396
 -0.05211013  0.8016068   0.31482851 -0.70124623 -0.67729883 -0.11939539
  0.39434103  0.80243972  1.83970584  2.41780012  1.16790522 -0.71482917
 -0.28258964 -0.02486493  0.00655102 -0.45438025 -0.28983714 -0.85904007
 -0.963086   -0.48743039  1.19618535  0.14260869  1.26650149 -0.02230635
  0.68458378  1.25078084  1.11788524 -0.10196757  0.22508091  2.30383605
  2.5959984  -0.01392267 -0.78221049 -0.6700798   1.86414826  0.5473102
  1.66363484 -0.75547798  0.68275757 -0.49748663  1.23271101  0.29456775
  0.22128874  0.10627391  0.23269414  0.67391024  1.36598278  0.91655314
 -0.40088375 -0.68431684  0.01267667 -0.42602375  0.6343584   0.28530227
  0.88106846  0.51604471  0.95693597  0.93965679 -0.84879615  1.10929746
  0.31669782  0.02989886  0.47523478 -0.31345883 -0.98512361 -0.30590948
 -0.35742081  2.34792569  0.63060554  0.30541239 -0.61765867 -0.78024518
  0.24638044  2.88886572 -0.84686971 -0.06568075  2.60622437 -0.32728371
 -0.51536099 -0.5880463   0.00800286  0.54385707 -0.33314736 -0.30469498
  0.33991274  0.71518275  1.62709797 -0.71595193  1.75912044 -0.0614601
  2.02348304 -1.03745914  1.05908149  0.7820507  -0.42509707  0.64767208
  0.04540574 -0.34944724  0.32618448  1.39424787 -0.10526725 -0.38118737
  0.58409373 -0.76976464 -0.08761262  1.01050291 -0.39184326 -0.0914311
 -0.538666    2.83437375  0.60118975  2.099813    0.80991461 -0.48967833
  2.53090317  0.54458126 -0.07869209 -0.19643627 -0.39724608 -0.64653297
 -0.39390939  1.43132862  0.6309779   0.32468132 -0.28132917  0.02173198
 -0.28451183  0.90273375 -0.28243938 -0.36112599  0.23246983 -0.84998239
  0.39303569  0.76266888  0.74388728  0.13178945  0.29170758  0.09524177
 -0.878625   -0.62504257  0.92605557 -0.7529059  -0.49932181 -0.89186754
 -0.09665114 -0.45100092  0.06932739  0.56797983  1.13141401  0.94276658
  1.48194271 -0.51382871  0.66716197 -0.16691596 -0.60973905 -0.35495834
  0.34225113 -0.0739646   0.35160006 -0.64464048  0.5425534   0.05878364
 -0.12421138  0.03944876  2.34816994  0.70804856 -0.9189532   0.3554549
  0.2950041  -0.0195917   0.11525562 -0.75395694  0.42775478  1.67663312] [-6.57742572e-02  9.14915742e-01  4.24681836e-01 -8.14795378e-01
  8.58274090e-01 -1.99421970e-01 -3.21892762e-01 -6.89378109e-01
 -4.16290444e-01  2.15087229e-02  9.25422748e-02 -2.88275120e-01
 -5.92389562e-01  5.29986406e-01 -4.93439115e-01 -7.25344390e-01
  4.43476982e-01  4.87364225e-02  3.90984199e-01  4.65928961e-01
 -8.42739427e-01 -4.39197997e-01 -3.99894080e-01 -9.49746470e-01
 -8.67597310e-03  3.91401309e-01  8.05250597e-01 -1.99433335e-01
 -5.86913163e-01  2.19766440e-01  1.66736821e-01 -2.18599081e-01
 -1.90188379e-01 -5.48259275e-01 -8.84346715e-01 -7.44687086e-01
 -8.61443636e-01 -7.45650328e-01 -8.28305411e-02  9.43170774e-01
  2.19403318e-01 -9.96444389e-01 -2.68899404e-01 -2.96911660e-01
  3.73507597e-01  7.72227005e-01 -8.60302030e-02  2.52656018e-01
  2.46308297e-01  2.02447568e-01 -7.65212438e-01  4.09430120e-01
  2.96422054e-01  6.83826071e-01  9.28221865e-01 -8.10489534e-01
  5.08972614e-01  6.08156247e-01 -9.61472223e-01 -3.55674800e-01
 -6.99980232e-01  5.42078571e-01  8.94478868e-01 -5.57444879e-01
 -9.08577567e-01 -1.17107626e-01 -5.79029788e-01  5.69319369e-01
  4.23911765e-02 -6.88634865e-01  6.54440565e-01  2.12741982e-01
  2.35617451e-01 -5.02881229e-01  8.71457082e-01  8.42473981e-01
 -8.76881920e-01  8.07761031e-01  7.94758305e-01  4.14261847e-01
 -1.71430748e-03 -2.28570621e-01  8.68078295e-01 -3.07880532e-01
  6.38313162e-01 -1.27365165e-01  4.24226217e-01 -3.62683236e-01
  1.98571089e-01  6.13427140e-02 -8.79345975e-01  6.34485815e-02
 -4.07496201e-01  3.60191167e-01  9.09422839e-01  8.08005734e-02
 -1.58892741e-01 -2.89838137e-01 -3.18369741e-01  6.41913279e-01
  7.88743829e-01 -3.66623344e-01 -8.76255956e-02  4.34537931e-01
 -2.88569131e-01  7.50289219e-01  5.16276658e-01  2.54850340e-01
 -6.44786097e-03 -2.34314722e-01 -6.24752307e-01 -2.27832824e-01
  5.26635573e-01  7.98686522e-01  8.08356919e-01 -9.79442845e-02
 -9.89797187e-01  4.32902493e-01 -1.39274603e-01  9.04694614e-01
  7.32553702e-01 -7.39823289e-01  1.93299529e-01  4.79892250e-01
  4.32302061e-01  8.47637195e-01 -4.54890150e-01 -1.01901532e-01
 -2.67144617e-01  4.88807170e-01 -8.10268380e-01  3.58393922e-01
 -7.52647514e-01  6.84064837e-01  7.01366612e-01 -5.91278433e-01
 -2.41713087e-01 -9.80224793e-01 -9.38264891e-01 -4.72700747e-01
  2.11584747e-01 -8.57370017e-01  4.04028486e-01 -9.37524701e-01
 -2.60464719e-01  2.07337805e-01 -8.02619568e-01 -8.21294782e-01
  9.04730029e-01  6.79998368e-01  2.83742583e-01 -8.30991288e-01
  1.98655422e-02  7.91905293e-01 -3.18247814e-01 -7.64714220e-01
 -9.16217186e-01 -5.85474473e-01 -2.79367056e-01  4.46310795e-01
 -6.65448690e-02 -5.18632739e-01 -6.29139038e-02  7.04280352e-01
  3.36600243e-03  6.97877935e-01 -4.13268654e-01 -7.14317348e-01
  5.59015227e-01 -6.28009336e-01  2.60303120e-01 -2.46727183e-01
 -2.51812089e-01  1.41798929e-01  8.69749686e-02  3.58824165e-01
  2.79505905e-01  9.74258495e-01 -2.03210906e-01 -4.73352959e-01
  9.34548190e-01 -9.11933719e-01  9.22388341e-01 -7.56655842e-01
  9.04066225e-01 -2.88516586e-01 -3.74442498e-01  2.01801779e-01
  1.75142799e-01 -6.92766489e-01 -2.28093590e-01 -9.32067177e-01
 -4.17595980e-01 -6.79297969e-01 -2.12341841e-01 -3.58353509e-01
  9.12361320e-01 -9.09461274e-01  9.22537027e-01 -7.82327617e-01
 -5.95964425e-01 -2.33054750e-01 -5.04777539e-01 -8.15871496e-01
 -3.31476944e-01  8.68601241e-02  7.26292567e-01  2.20798609e-01
 -7.00883376e-01  6.28900351e-02  2.37594682e-01  3.22005028e-01
  6.91699764e-01  6.29898791e-01  1.54983400e-01  1.10981227e-01
  5.75724209e-01  3.89391931e-01 -5.93878116e-02 -8.61068608e-01
  1.58482780e-01  8.96877401e-01  8.35896098e-01 -2.96057135e-01
  3.15404347e-01  9.74700343e-01 -1.78604663e-01  7.05031809e-01
  2.68106862e-01 -4.56611843e-01 -5.37886224e-01 -2.26403243e-01
 -2.50358576e-02  8.92497193e-01  2.79672746e-01  5.97221323e-01
  2.91350859e-01 -1.75494676e-02  6.41055608e-01 -9.97720141e-01
  8.70820972e-03  3.97592333e-01 -6.49155971e-01  2.78058544e-01
  1.42596740e-01  3.29465799e-01 -1.04815273e-02 -7.90833563e-01
 -3.48308237e-02 -3.70706682e-01 -1.58777196e-01 -1.56633707e-01
 -9.15202357e-01 -6.15228193e-01 -6.85001975e-02 -8.13933617e-01
  8.07805120e-01  9.45659655e-01 -1.43437846e-01 -4.11884896e-02
 -6.10201951e-01  1.90142839e-01 -4.40428792e-01  6.75539386e-01
 -2.08638862e-02  3.45832978e-01  5.39846623e-01  9.91134612e-01
 -4.10162721e-01  3.60188505e-01  3.95843053e-01  2.89654499e-01
  2.46662463e-01  2.32860398e-01 -9.63177436e-01 -1.00802763e-01
 -6.75721195e-01  6.86350501e-01 -8.20861833e-01  9.25114361e-01
 -5.58223266e-01  5.43336654e-01 -9.10818252e-01  1.26209976e-01
  2.54161898e-02 -4.72301008e-01 -6.47147506e-01 -8.84870168e-02
  4.13288936e-01 -1.75123466e-01 -6.06013952e-01  9.03722974e-01
  2.82684035e-01  4.04825496e-02 -5.32666220e-02  2.31443757e-01
 -4.58519709e-01  7.91204879e-01  4.97950719e-01 -9.93307851e-01
  7.52511057e-02 -7.25469029e-01  6.52015807e-01  1.89905761e-01
  2.93031859e-01 -7.23882035e-01  9.42093378e-01 -6.25870467e-01
  2.42797984e-01 -1.01025917e-02  6.00788893e-01  3.66082189e-02
  2.65909103e-01 -4.16307343e-01  5.74212778e-01  9.02769942e-01
 -9.87083514e-02  2.22405661e-01 -2.17191687e-01 -7.53084915e-01
 -4.09335064e-01 -7.39026221e-01  8.35083500e-01  9.15966940e-01
 -3.52314005e-01  3.94606656e-01  9.34715900e-01  8.41131207e-01
  6.82413805e-02 -1.49623937e-01 -7.22607414e-01  2.20544853e-01
 -7.56587418e-01 -4.72145303e-01  5.99528421e-01  3.18139571e-01
 -5.89185255e-01  3.38462633e-01 -5.20779896e-01 -4.38397194e-01
 -9.39182628e-01  1.10754112e-01 -9.91102940e-01  9.98142080e-01
 -9.75779373e-01  4.42176978e-01 -1.85413658e-01  8.57669610e-01
  2.17688808e-01  1.00608959e-01 -2.49149257e-01 -1.65555042e-01
 -7.33936521e-01 -1.75324503e-01 -8.57790716e-01  3.08297192e-01
  2.04242013e-01 -8.20826400e-01 -4.74891625e-01  7.06066078e-01
 -2.46648642e-01 -6.93731812e-01  3.91771323e-01  4.91241832e-01
  1.81983921e-01  5.60775788e-01  1.28132990e-01  9.73292844e-01
  5.74925272e-01  5.03103463e-01 -7.92909565e-02  2.07564647e-01
 -6.18680903e-01  4.01665710e-01 -4.68743749e-01 -6.66138293e-01
 -5.87941720e-01  8.99342168e-01 -6.06722367e-01 -3.85752510e-01
 -8.04572011e-01 -4.73447232e-01 -2.83838618e-01  9.01949260e-01
  2.86514648e-01  7.24746615e-01  4.77222713e-02  7.58033951e-01
  5.62593372e-01 -1.29009644e-01  2.83466216e-04 -8.28835738e-01
 -1.58497996e-01  2.12611415e-01  3.65200852e-01  1.32621248e-01
  3.10577911e-01  7.29710180e-01  1.23598148e-01  6.01450959e-01
  6.52667933e-01 -7.60508749e-01 -2.21371265e-01  3.03501827e-01
  5.82764361e-01 -7.95349765e-01 -1.51024555e-01  9.59078374e-01
  7.96290977e-01  3.52916530e-01  2.96274699e-02 -5.49820221e-01
  9.32364797e-01  6.86375643e-01  9.13643944e-01  3.57928572e-01
 -6.32319365e-01 -8.79078119e-02 -6.43051344e-01 -1.65316040e-01
 -4.55723377e-01 -5.30688486e-01 -7.98743476e-01  6.84827581e-01
  5.32806264e-01  9.69113843e-01 -7.03935922e-01  5.78164170e-01
  7.58053574e-01  1.06922285e-03  9.37356820e-01 -5.70807465e-03
  1.92449996e-01 -7.19191652e-01  1.97644024e-01  3.43245139e-01
 -7.36879854e-01  4.42623004e-03  1.01738295e+00 -6.88458748e-02
  2.58198320e-01  4.70609309e-01  5.26901051e-01  2.13588428e-01
  6.45531262e-01 -1.63441183e-01 -5.37668681e-01  5.09982578e-01
  9.82093448e-02 -6.50302131e-01  9.04184704e-01  6.52814627e-01
  5.41616844e-01  3.48962540e-01  4.24219963e-01 -2.54270133e-01
 -3.19591114e-01 -1.55362135e-01 -1.27768293e-01 -7.52737667e-01
  4.16850244e-03  7.23048529e-01 -4.39045430e-01 -9.42690196e-01
  7.18685708e-01  8.80932039e-01 -3.53783764e-02  7.09311599e-01
  3.56871656e-01  3.50051444e-02 -8.78220811e-01 -7.79650761e-01
 -1.61205565e-01 -7.56942597e-01  9.97578678e-01  3.18087706e-01
  3.28724549e-02  6.91623878e-01  3.30818523e-01 -8.89056089e-01
  4.71020804e-01 -7.79357005e-01 -3.44844397e-01 -9.65159792e-01
  2.08417074e-01 -2.23639970e-01 -9.20221523e-01  3.35577069e-01
  8.17017437e-01  5.17354668e-01 -5.74753804e-01  6.97763164e-01
  4.73752517e-01  2.06017058e-01 -6.83758318e-01 -5.48564383e-03
 -2.43726688e-01 -5.61852135e-01  7.22132686e-01 -3.50336432e-01
 -3.52413183e-01  9.51912931e-01 -8.12428111e-04 -4.18918251e-01
 -6.42138436e-01  7.12454722e-01  9.52725305e-01  3.80124116e-01
  6.46262211e-01  6.10303093e-01  7.06812758e-01  9.75086709e-01
  3.69874915e-01  6.34456997e-01 -4.07268065e-01 -8.25415378e-01
  5.01884061e-01  4.22798525e-01 -4.23571948e-01  9.32218738e-01
  6.66586441e-01  6.44016780e-01 -8.01532246e-02  1.92997117e-01
  7.10161438e-01  6.83099375e-01 -8.05548635e-02 -4.81590086e-01
 -9.84440007e-01 -2.28053561e-01  2.53532276e-01 -2.47842488e-01
 -5.87896871e-01 -1.86270216e-01 -5.60555299e-01  5.64653906e-01
  8.07840086e-01 -6.97681185e-01 -5.88752930e-01 -6.43852374e-01
  5.64786405e-01 -5.44551634e-02  7.42130697e-01  6.09386358e-01
  4.47321094e-01  6.83917726e-01  2.67020262e-01  2.14401987e-01
 -6.27509604e-01  9.21125855e-01 -6.09647123e-01 -9.34435904e-01
 -4.17820057e-01 -3.13898275e-01 -8.91371889e-01  3.65066055e-01
  9.09721886e-01  4.64816983e-01 -3.26689982e-01  1.92352417e-01
  4.27193210e-01  4.89531646e-01  2.94526732e-01 -9.48935570e-01
 -4.89880953e-01 -6.47779086e-01  5.83198594e-01  7.49678671e-01
 -6.02503106e-01 -3.09734976e-01  5.89918717e-01  7.32398646e-01
  5.49472739e-01 -3.43812570e-01  5.28560740e-01  3.89839600e-01
 -7.61872587e-01  7.33876494e-02 -7.61608907e-01 -5.90590016e-02
 -2.04131078e-01 -4.85784747e-01  9.88161591e-01 -2.79450020e-01
 -1.04387987e-01 -4.89596272e-01  5.12352261e-01  1.80450417e-01
  9.45187910e-01 -2.94035545e-01  1.20432116e-02 -3.78979685e-01
  7.33006943e-01  5.84586694e-01  6.42214080e-01 -3.09412063e-01
 -7.31064729e-01 -2.61234114e-01  5.40492586e-01 -2.63445881e-02
 -3.98107028e-01 -2.56210060e-01  4.10129331e-02 -4.71199965e-01
  8.80590380e-02 -5.90351892e-01 -1.70277280e-01 -8.69411700e-01
 -6.67794822e-01  4.24516473e-01 -4.02215552e-01  7.83409393e-01
 -3.56509453e-01 -9.86675969e-01 -1.82907311e-01 -2.53905944e-01
  6.34381374e-01  6.69905992e-01  5.46747540e-01  8.19286174e-01
 -7.71691166e-01 -4.67448672e-01  1.58154880e-01 -6.57675512e-01
 -1.04549994e+00  3.13852895e-01  1.12466197e-01 -6.46454074e-02
 -7.01233479e-02 -2.28180839e-01 -4.93718123e-01 -4.76048653e-01
 -6.86544792e-01  5.66300963e-01  4.74369486e-01  7.79566224e-01
 -8.08820538e-01  4.23432681e-01  1.55265240e-01 -4.02081090e-01
 -3.88185009e-01  7.24166214e-01  2.14415782e-01 -4.34452309e-01
 -7.79297468e-01  6.66484599e-01 -7.53040553e-01 -8.83783291e-01] [-0.95941989 -0.6001807  -0.99411159 -0.89429186 -0.4942158   0.74988695
  0.3629265   0.28989623 -0.45427234 -0.49860618  0.46915145 -0.52530392
  0.46477828  0.30117249 -0.16160526  0.12277293 -0.3378878   0.900079
  0.02998984 -0.27515162  0.65081006  0.25532106  0.00248881 -0.59788603
 -0.97948181 -0.72031957  0.72964085 -0.58634477 -0.43483722  0.90139544
  0.8140892   0.67967749  0.62704781 -0.01848263 -0.68241545  0.37481785
 -0.91446118  0.48037344 -0.80833325  0.29604844  0.3353066  -0.10998271
 -0.34451423 -0.94839454  0.88565875 -0.15440667  0.61351969  0.08239589
 -0.58383568  0.1600376  -0.35187079 -0.48806505 -0.51964178 -0.36258615
 -0.35519101 -0.00789958  0.88055874  0.47789278 -0.80686448  0.25194578
  0.13285754  0.27941133 -0.2472909  -0.12113718 -0.70026792 -0.31432488
  0.77432384 -0.36194004  0.33188725  0.22013406  0.07097279  0.04047602
  0.72705727 -0.6875326  -0.44279173  0.88851463  0.33935923 -0.81840327
 -0.28206007  0.53233558 -0.60659731 -0.32359606  0.03760813 -0.36651993
 -0.45176035  0.21952319  0.61903228 -0.62241876 -0.18227052  0.5771903
  0.1871168   0.32191415 -0.48239338  0.28230722  0.20963763  0.35384522
  0.66726951 -0.99460142 -0.31194871 -0.2760967   0.85421509 -0.12924273
 -0.50936613  0.1852224  -0.90801898 -0.32923717 -0.54610203 -0.99926407
 -0.64794123 -0.32942859 -0.18516982 -0.96245692 -0.16093368 -0.49012356
  0.73403178 -0.17164386  0.76747117 -0.84134071 -0.43925632 -0.00170908
 -0.89873709  0.06900504  0.72376894 -0.06684661  0.19201874  0.64039198
 -0.10161012  0.31044915  0.15025727 -0.98069333  0.45709844 -0.56038337
 -0.94295378 -0.6252059   0.36703693 -0.41447708  0.39149903 -0.60394469
  0.00265231  0.66080083 -0.36816788 -0.75913913 -0.99444927 -0.33455611
 -0.32826079 -0.6869442   0.1127107  -0.18831613 -0.01490989 -0.10645908
  0.24333632  0.30413388 -0.93318885  0.73336507  0.302154   -0.22200668
  0.80654697 -0.36284048  0.99833852 -0.68669944 -0.4626014   0.45367774
  0.10258337 -0.68498376 -0.09541654 -0.24258201  0.97638424  0.09826908
  0.47153604 -0.71446022  0.44007118  0.04783294 -0.95647099 -0.62886226
  0.29087916  0.13166199  0.46574566 -0.89526161  0.0377022  -0.58989401
  0.50530899 -0.25972106  0.34052736 -0.81339557 -0.74009095 -0.71563871
  0.74758297 -0.72173258 -0.30526588 -0.81628651 -0.14485551 -0.89822181
  0.44510831  0.51733932 -0.45914817 -0.88055295  0.69498568 -0.84425876
 -0.85932149 -0.66087891 -0.93785508  0.24675878 -0.76160003 -0.4568341
 -0.26732942  0.64550942  0.03840106  0.35824721 -0.75484636  0.60691351
 -0.57093936 -0.5292669   0.34409483  0.56708245 -0.11740025  0.40078084
  0.98146618  0.95796722  0.45672395 -0.20440595  0.4866269   0.29706134
 -0.49039318 -0.44226886 -0.70987408 -0.30848627 -0.38769845 -0.66389546
  0.40717305 -0.16079147  0.8457475   0.39580526 -0.50360294  0.53222062
  0.47154312 -0.62078823 -0.24887754 -0.01935439 -0.59020766  0.40695262
 -0.53786843  0.6893988  -0.80561318 -0.75623168 -0.02472823 -0.01800797
  0.94491214 -0.55776387 -0.55235161 -0.57268951 -0.65247942  0.47898115
 -0.70987681 -0.22275839 -0.72141483  0.79941958  0.47261483 -0.98300985
 -0.51652601  0.99401732 -0.94284125 -0.55501203  0.23287286 -0.74055011
  0.55815394 -0.37822416 -0.31010958 -0.80994185  0.83938843 -0.89229501
 -0.99356906  0.01140008 -0.18615868 -0.29358848 -0.85085197 -0.99485324
 -0.3248797   0.58821605  0.33573678 -0.99043343  0.9606783  -0.86364164
 -0.1786045  -0.99888584 -0.90180183 -0.52662278  0.56289471 -0.00554481
  0.6557338  -0.18411175  0.74108448 -0.20000741  0.81190185 -0.68394061
 -0.63301538 -0.23789762  0.28723752  0.97472376 -0.29873753 -0.06983166
  0.51795178  0.92895861 -0.37807716 -0.71354831  0.41023308 -0.68660116
  0.8186689   0.5656616  -0.64504812 -0.80626846 -0.02549529 -0.76427263
 -0.90210583  0.06107005 -0.32228934 -0.42638461 -0.63442338  0.28179377
  0.21299702 -0.36117735  0.18064569 -0.10854169 -0.03534126 -0.54325893
 -0.36920098  0.49129748 -0.86577574 -0.79253413 -0.50780922  0.05055427
 -0.67189179  0.29579072  0.74061429  0.12704605 -0.60452816  0.22681013
  0.83172128  0.94976299  0.12856071  0.97293679 -0.03262939 -0.62996551
  0.14179582 -0.71305582  0.46523814  0.22477585 -0.05526265  0.94141926
  0.83890913 -0.65305959 -0.74861867  0.98346081 -0.50788564 -0.11379786
  0.9697747  -0.2810143  -0.38283041 -0.9961753  -0.01604799 -0.5694007
 -0.53555757 -0.73723468 -0.59134423  0.09224577 -0.64109979 -0.72984138
  0.87556851 -0.08745991  0.46067244 -0.31921508 -0.78728176  0.46632893
 -0.55297405  0.33243036  0.28150206  0.56793643  0.04965633 -0.73919736
 -0.36362779 -0.54880452  0.01779912  0.39015749 -0.52099323 -0.16439947
 -0.9846708  -0.58123539  0.65012549  0.13626093 -0.32277792  0.06067881
 -0.87750372  0.64025211  0.31055141  0.37847588  0.73090839  0.99768778
 -0.80260126 -0.31822007 -0.79839969 -0.58028997 -0.28835956  0.57899573
 -0.73273482 -0.56878372  0.78673717  0.03161347  0.95170749 -0.34257592
 -0.51787374  0.04121352 -0.01042328  0.61247711 -0.985017    0.02915172
 -0.34336231 -0.73880167 -0.85472286 -0.7922874   0.74347096 -0.37805066
 -0.8670007  -0.58281688 -0.37145698  0.75417439  0.45218713 -0.53612901
  0.81556659  0.39420654 -0.02507182  0.33376282 -0.35706289  0.67762471
 -0.44257614 -0.66955667  0.26438641  0.30947624 -0.73932798  0.06397302
  0.87125187  0.35379622  0.19637478  0.86314709 -0.14260513  0.72629143
  0.32684274 -0.0586648  -0.25474182 -0.99311536  0.36890583  0.48522535
 -0.94857439  0.60402487  0.3122732   0.15909152  0.71195286  0.4134285
 -0.22998051 -0.01853528 -0.52276784 -0.72093676 -0.9045784  -0.12601096
  0.56282842  0.19833163 -0.4188801   0.38778456  0.37043861 -0.29509471
  0.1772393  -0.25976637 -0.05989034 -0.501459   -0.95038813  0.00309595
 -0.27948084 -0.2593408   0.75614828 -0.00173105 -0.9003515  -0.1609413
 -0.8194977  -0.22271108  0.87367981  0.4438503   0.00507687  0.12874387
 -0.17061718  0.28070627 -0.78642221  0.11758584  0.76331926  0.14586734
  0.68154666  0.29648231  0.38340459  0.64769623  0.67272951 -0.07580556
  0.74258621  0.5210858  -0.85383028  0.50918487 -0.59037266 -0.87514101
 -0.24897692 -0.74633681 -0.92234569  0.05245893  0.61385073 -0.74372558
 -0.48623799 -0.02795588 -0.24643353 -0.67706634 -0.49206992 -0.04432312
  0.64654622 -0.80319103  0.91728901  0.13367209  0.47156316  0.28511252
  0.82376486 -0.84305635 -0.08281438 -0.1903077  -0.57012112 -0.15552049
  0.25310319  0.97749536 -0.95933732  0.98363174  0.78877763 -0.30734832
  0.84405388  0.52362697  0.50610315  0.67470739  0.30551809 -0.8255065
  0.46861453 -0.42358777  0.41448624  0.86088737  0.98553961 -0.25960437
  0.33685968 -0.29080001 -0.74919671  0.87896825 -0.90623882 -0.39910924
 -0.48833235  0.71246582 -0.97230729 -0.14673502  0.2189081   0.48840445
 -0.18705584  0.20581798 -0.26458032  0.31387928  0.77909755  0.30714751
 -0.84091557  0.57462019  0.61159746  0.16708493  0.0718798   0.07202337
 -0.62135584 -0.71748827 -0.72961743 -0.63923369 -0.34132766  0.52908071
  0.16772757  0.67914083 -0.16781427 -0.95388319  0.86275257  0.89754483
 -0.52704891 -0.72486319  0.15762527 -0.79442488 -0.10148188 -0.99305225
 -0.30317697  0.30172398 -0.62372903 -0.64065032  0.54069167  0.10662295
  0.22482775  0.11291022 -0.34478854  0.29917797 -0.47100661  0.5049181
  0.85795969 -0.7724785  -0.01545026 -0.13281815 -0.52829377  0.35777865
  0.65286571  0.31248525 -0.41479     0.42652765 -0.92951371 -0.25390142
 -0.71075447  0.02440289  0.982424    0.49700853 -0.42415947 -0.0902692
  0.07352213  0.45756526 -0.31039061  0.32057854  0.02867644  0.0764848
  0.72106075 -0.43150672 -0.81114961 -0.78054371  0.02746922  0.00885871
 -0.32983043 -0.57857016  0.50985869  0.20939805  0.09399208 -0.40207072
  0.07727851  0.48614175 -0.53573373  0.21565329 -0.06198427  0.46438335
  0.80110006 -0.06555724 -0.96900048  0.52889148 -0.14537747 -0.55773131] [-4.29225907e-01  3.69187103e-02  8.80712698e-01  1.13474147e-01
 -9.86010446e-01 -7.05631287e-01 -6.59750898e-01 -9.85794386e-01
  6.65693674e-01 -6.96610521e-01  2.35584253e-02 -2.06457433e-01
 -3.88030222e-01  5.73352415e-01  8.93885580e-01 -2.01980617e-01
 -1.72809037e-01  3.90496858e-01 -2.18259006e-01  3.34644189e-01
  3.32224821e-01 -7.31111580e-01 -2.49777710e-01 -2.70411394e-01
 -6.66376572e-01  1.17332887e-01 -5.57043312e-01  3.95502542e-01
  3.22312559e-02  1.79496196e-01 -3.91209288e-01  5.70962602e-01
  6.66273067e-01  5.46665843e-01  3.42868710e-01  5.37180550e-01
 -1.27302996e-01  7.71360740e-01  2.79489476e-01  8.32382431e-01
 -2.96980380e-01 -6.38902727e-01 -4.48951046e-02  5.27423366e-01
  7.31388961e-01  9.25640800e-01 -8.23973947e-03 -3.25959632e-01
  7.43233126e-02  1.54422224e-01 -8.97116932e-01 -6.89472338e-02
  3.92723835e-01 -5.73174148e-01  2.10933305e-02 -5.48406922e-01
 -6.28501798e-01 -5.06443922e-01 -1.78668711e-01  5.76598573e-01
 -3.81752925e-01  4.29020390e-01  7.19214958e-01  1.15434667e-01
  8.37210130e-01  4.40676443e-01  6.55937117e-01  3.66938219e-01
  5.79910241e-01  8.47843426e-01  3.08120726e-01 -2.59655762e-01
 -6.57791632e-01 -9.02212720e-01 -4.88215968e-01  2.56187307e-01
 -4.58484418e-01  5.38262571e-01 -8.91372030e-01 -1.04652440e-01
